tree
version=v4
num_class=1
num_tree_per_iteration=1
label_index=0
max_feature_idx=21
objective=binary sigmoid:1
feature_names=brand_code shop_id item_third_cate_cd vender_id shop_score age sex user_level province city county hour day month dayofweek user_item_count user_action_mean user_shop_nunique user_brand_nunique user_cate_nunique item_user_count item_action_mean
feature_infos=-1:2757:7814:3069:3598:3629:2899:1201:1314:1995:2841:785:9311:3797:0:1489:5775:936:6237:5938:5490:4775:10839:6626:2771:7782:9140:216:8657:10527:10623:750:8668:5753:6393:1455:2045:6856:6003:2416:10523:3519:9115:3486:8312:3740:10064:1710:1931:3471:9396:4876:1669:2712:9905:267:9131:1347:3962:4125:4381:9165:10282:10071:5058:9537:3040:3041:6930:3321:3499:192:5562:4959:10602:5958:9026:4512:2455:7244:2929:4269:6485:5320:2911:6018:4313:2287:2981:6092:10777:4390:2877:161:5443:8171:2365:6040:5159:4275:6058:3421:8010:2295:7916:687:5342:9937:6831:5808:10575:7716:8506:9259:10247:7959:9690:10074:5441:3616:2020:5281:3775:4781:6127:5421:8131:9699:8690:341:5392:6232:3038:9677:4990:5432:4858:518:708:4838:7253:9044:6386:3424:846:1304:310:3727:7068:9876:2472:5430:7603:7240:9491:10811:5768:2039:10145:7414:5819:9384:6657:147:3609:4148:9915:4306:9475:10418:70:7251:3474:559:1599:4856:5816:9521:5448:8101:5949:5664:10324:2882:2907:8416:4746:8816:4256:8230:10757:2900:2027:9539:1353:8257:5606:10699:2792:3603:6789:9890:6608:7808:9795:10752:6187:4548:6697:10249:2200:5294:5691:6528:9950:1962:6493:5023:8502:3074:10717:7127:2735:8652:1896:3516:6918:6200:8311:4747:6498:3240:4941:10554:357:6390:9636:2378:8008:2212:6900:9468:2876:3345:4839:1461:4761:1492:4689:10156:3806:10481:298:3642:6661:2216:7854:5978:9657:4698:8378:9075:178:4072:7980:8548:796:3432:4573:393:5760:7955:8004:9228:4597:4792:6311:1080:9292:2817:9211:1204:2652:2844:8218:9087:1973:9164:695:4861:5389:7088:9300:1591:3482:9021:2924:6359:2451:8835:10015:7892:6939:787:6911:9602:9961:2609:3088:5670:9960:1452:1806:10338:302:4626:6610:7429:1073:1955:5980:6944:8321:8698:8914:4854:7224:8454:10843:510:781:1023:5122:7839:10765:404:9998:442:1092:2840:4197:10041:1422:7407:4165:5032:6912:1841:3381:1482:1930:9120:839:3402:4969:5546:6647:7162:8231:3:511:551:4836:8472:10771:4549:5271:6037:6774:7870:3692:7925:9959:10229:1954:2943:4919:8526:10810:609:1664:1901:4426:5168:5586:7646:8814:71:4824:8624:1406:2340:7914:9222:9246:9936:6736:2538:6921:7120:2115:4433:6548:10137:2777:3681:8740:1212:2445:2620:5770:6586:464:474:725:3083:4279:4357:5283:5892:6562:9295:1149:3118:4243:6798:9457:10525:10710:1743:5804:10770:102:358:982:1934:2124:3182:5615:8770:8973:10390:10656:322:2438:3581:7150:9018:10842:1070:1420:2037:4294:38:1241:4033:5916:8069:8157:8646:8991:9895:8780:4276:4457:5207:5400:607:1104:2061:2265:4871:5384:5690:7219:9055:9768:47:260:2127:4661:4840:8430:9343:10705:1536:3744:4576:9093:9386:5755:5801:6838:7805:8139:9616:1707:1795:2278:2550:3610:10799:2189:3332:3453:4420:4891:5913:6364:7279:7634:7727:7911:8309:8916:172:214:370:6723:8605:8951:9628:193:2388:4280:4310:4743:6923:7191:8859:9088:10368:1969:2583:2702:3299:5034:6881:6894:8214:8279:9377:9805:10515:2776:3496:6971:7746:9556:10787:1165:1588:1907:2471:2625:3829:3952:4219:4620:6171:7085:8032:8887:9867:10610:10776:823:1675:1724:3903:3933:4600:5005:6026:6958:7383:10054:1873:2104:3737:5071:5895:6019:6297:6465:7453:9141:735:1180:2305:2433:2440:3293:3357:4640:4827:7984:8096:696:872:3300:3739:4343:4911:5434:5861:6530:6955:9105:9157:10340:202:473:1062:1333:1468:7292:7295:8578:9275:9348:10198:10203:10296:184:479:965:2805:3252:4134:4159:4842:5510:6010:9329:61:810:2267:2725:3016:3174:3686:3730:3891:3990:4360:4456:4570:4688:5318:6437:6575:7336:7813:8570:8667:9327:9856:9869:10295:10618:636:669:931:1367:1871:2902:3315:4011:4288:4736:4797:5942:6302:6669:7136:7441:7600:8682:987:1296:1335:2886:3400:3750:3911:5096:5267:5778:6539:7097:7587:9037:9176:9875:9920:9934:10553:1162:1179:1232:2117:2238:3258:3475:3768:3844:4049:4115:4864:5254:5704:5832:6242:6510:6599:6796:7553:7907:8163:8590:8606:8726:9226:9836:9874:678:2051:2412:2653:3199:3404:3947:5040:5754:8035:9333:10850:2101:3303:3850:5046:5878:6792:6947:7241:9167:9660:10175:131:1371:1909:1970:2435:3267:3883:5367:5456:5487:5807:8282:9489:10149:10455:534:1285:2028:2667:2919:2939:4126:4487:4615:4628:5498:5592:6207:6273:6751:7547:7810:8186:8326:8410:8913:9240:9623:10308:10604:10684:148:183:596:703:1109:1364:1706:2215:2556:3227:3318:3954:4048:4862:6137:7588:7978:8240:8774:8819:10108:10350:10459:10659:53:177:933:2206:3104:3307:3327:3479:3535:3617:4674:4873:5232:6048:6292:6339:7504:8752:8762:9142:9186:9785:10487:342:513:670:795:1951:2450:2765:3025:3283:4431:4887:6059:6625:6933:6966:7704:7729:9759:10146:10317:265:468:619:1057:1413:2017:2341:2373:2545:2762:3511:4453:4504:5312:5349:5566:6747:6847:7770:8077:8988:9527:9853:9939:10245:10280:10798:82:245:380:960:2630:2832:3547:4293:4419:5157:5516:5623:6038:6108:7508:7896:7934:8524:8802:9045:9783:10011:10039:60:257:291:586:815:818:898:1263:1459:1647:2054:2397:2688:3472:4464:4569:4845:4874:4939:5125:5715:6384:6430:8610:10091:10202:10326:10634:321:323:577:599:866:1493:1807:2019:2162:2188:2276:2377:2766:3183:3185:3423:3825:3871:4073:5829:6350:6365:6676:7561:7849:8070:8811:8995:9134:9503:9993:123:771:838:937:1628:2096:2427:2595:2726:3186:3466:3762:5414:6256:6606:6907:6980:7080:7772:7828:8194:8304:8967:9997:10670:10707:125:264:351:440:1287:1616:1698:1908:2314:3015:3085:3187:3389:3454:3924:3953:4723:4795:5228:5907:5933:5995:6634:6988:7473:7579:7661:7825:8539:9294:10263:10400:10671:132:1058:1744:2164:2394:2488:2809:3007:3192:3465:3495:3537:4733:4931:5699:5777:6299:6769:7280:7426:8140:8300:8817:8826:9010:9572:9601:9958:10078:10084:249:308:388:1260:1388:2681:2764:2970:3550:3978:4141:4254:4712:4950:5186:5199:6199:6517:6543:6602:7109:7776:8024:8268:8429:8509:8672:8686:10127:10335:10546:10641:439:688:926:1275:1311:2023:2105:2136:2181:2297:2589:3833:4100:4124:4312:4516:5095:5365:5720:5796:6309:6330:6345:6400:6514:6670:6734:6875:6963:7106:7304:7803:7841:7868:8002:8072:8222:8577:8939:9058:9193:9241:9243:9590:9749:9781:9981:10258:10489:1:181:402:407:770:1043:1053:1372:1402:1460:1792:2111:2515:2739:2780:2920:3652:3872:3874:3875:4633:4669:4790:4801:4816:4847:4890:5150:5628:5659:5961:6124:6212:7142:7354:7495:7543:7844:8028:8523:8556:8681:8769:9025:9201:9224:9540:9633:9678:10219:10474:10591:10732:10819:13:49:185:259:384:644:677:782:801:826:916:1138:1220:1491:1830:1923:2384:3445:3648:3814:4065:4277:4916:5227:5395:5537:5559:5636:5740:5744:5902:6105:6332:6337:6361:6563:6582:6805:7049:7157:7371:7398:7481:7502:7596:7902:8340:8363:8653:8745:8960:9009:9269:9316:9944:9987:10402:10620:287:853:910:967:1071:1196:1434:1448:1869:2183:2375:2619:3320:3403:3761:4245:4424:4468:4866:5070:5467:6025:6248:6254:6255:6467:6572:6654:6811:7057:7086:7122:7286:7491:8014:8037:8710:9011:9081:9083:9261:9620:9694:10051:10061:10073:10446:10502:10823:34:39:42:386:863:864:929:1654:1662:1845:1947:2002:2008:2259:2313:2517:2612:2690:2758:2854:3216:3247:3277:3285:3374:3417:3666:3831:3858:4047:4086:4236:4594:4859:4907:4974:5187:5335:6160:6479:6580:6709:6752:6864:6994:7026:7182:7464:7483:7823:7852:8238:8332:8579:8737:8833:8893:8977:9034:9138:9339:9526:9661:10025:10208:10213:21:410:481:588:768:832:1042:1061:1093:1167:1691:1771:1852:2221:2567:2738:3011:3080:3237:3238:3295:3707:3818:3821:3849:3882:3907:3934:3979:4270:4346:4483:4555:4986:5036:5821:5822:6146:6362:6600:6627:6845:6865:7164:7234:7300:7358:7629:7794:7906:7920:7932:8298:8338:8503:8515:8584:8755:8923:8948:8971:9016:9029:9118:9168:9207:9735:9838:9927:10037:10123:10223:10696:10746:26:232:491:618:757:817:1236:1278:1305:1343:1704:1943:2122:2210:2391:2441:2679:2742:2747:2753:2781:2812:2860:2922:3031:3061:3095:3195:3292:3728:3900:4109:4835:5080:5189:5193:5963:5968:5996:6094:6169:6285:6421:7083:7366:7423:7952:8291:8349:8492:8498:8557:8601:8627:8662:8781:8847:9007:9263:9382:9410:9431:9449:9698:9753:9863:9911:9985:10022:10182:10222:10281:10807:93:95:205:243:462:523:621:804:833:897:1112:1197:1261:1454:1526:1682:1762:1883:2249:2307:2526:2651:2731:2979:3228:3231:3437:3714:4079:4096:4179:4331:4639:4659:4999:5000:5011:5208:5305:5415:5438:5597:5640:5737:6090:6233:6317:6402:6515:6584:6642:6928:7096:7288:7322:7493:7503:7590:7605:7608:7662:7682:7711:7713:8137:8252:8269:8313:8320:8394:8504:8616:8675:8701:8789:8806:8858:8862:9015:9315:9331:9337:9346:9687:9793:10002:10044:10053:10118:10135:10190:10244:10290:10356:10364:10722:20:65:334:441:587:760:856:903:917:940:983:1125:1139:1250:1345:1581:1747:2229:2751:2934:2953:3378:3443:3594:3736:3753:3787:3936:3999:4130:4131:4160:4161:4201:4214:4440:4455:4491:4550:4596:4691:4964:5115:5116:5148:5226:5311:5338:5362:5523:5591:5694:5758:5803:5952:5985:6034:6093:6106:6130:6159:6333:6358:6370:6460:6549:6849:6859:6869:6886:7005:7210:7289:7488:7589:7599:7699:8031:8132:8243:8343:8612:8797:8866:8984:9199:9308:9322:9324:9391:9532:9705:9764:9855:10098:10144:10187:10342:10449:10760:107:215:218:432:436:501:563:721:761:859:1064:1122:1187:1393:1405:1435:1522:1540:1550:1567:1655:1713:1881:1892:1926:1990:2046:2047:2172:2241:2327:2350:2430:2795:2819:2950:2993:3201:3213:3232:3305:3431:3660:3680:3699:3745:3746:3799:3839:3948:4038:4090:4267:4342:4409:4422:4423:4602:4686:4768:4772:4848:4915:5024:5136:5173:5183:5197:5477:5518:5757:5776:5790:5794:5992:6011:6073:6282:6413:6474:6754:6765:6785:6883:6885:7042:7226:7449:7556:7659:7685:7793:7850:7887:7933:8019:8076:8086:8174:8253:8295:8315:8411:8433:8434:8491:8510:8587:8611:8617:8673:8711:8881:8943:9156:9195:9257:9440:9462:9534:9745:9857:9952:10194:10329:10809:58:226:313:398:453:508:544:562:608:717:747:802:855:857:919:1050:1082:1156:1177:1252:1300:1359:1384:1433:1721:1834:1848:1884:1889:1935:1989:2013:2014:2137:2300:2328:2608:2669:2698:2704:2793:2831:2833:2867:2933:2946:2992:3004:3043:3164:3197:3230:3241:3254:3354:3386:3447:3597:3708:3941:3959:4050:4053:4187:4311:4404:4471:4503:4535:4560:4589:4632:4662:4700:4755:4769:4977:5035:5060:5110:5117:5255:5280:5337:5345:5397:5542:5554:5577:5620:5709:5785:5805:6053:6056:6175:6201:6213:6230:6323:6353:6379:6404:6441:6459:6597:6744:6761:6840:6882:7067:7090:7094:7137:7159:7173:7197:7205:7273:7277:7344:7451:7570:7631:7720:7799:7821:7855:7858:7927:7953:7965:8080:8191:8205:8275:8382:8445:8463:8483:8564:8626:8639:8664:8665:8860:9005:9056:9169:9171:9309:9352:9454:9455:9626:9630:9692:9732:9796:9888:9932:9982:10089:10234:10246:10274:10300:10319:10419:10466:10558:10565:10658:10665:10691:10806:10826:10828:10854:16:79:119:159:189:285:320:411:471:548:871:1006:1018:1100:1169:1209:1237:1272:1309:1319:1325:1349:1556:1585:1666:1697:1715:1764:1802:1816:1822:1890:1920:1966:1968:2025:2089:2102:2196:2208:2466:2494:2525:2541:2774:3180:3279:3348:3362:3459:3549:3599:3665:3807:3822:3893:3921:4022:4058:4231:4322:4339:4558:4653:4671:4729:4800:4897:4904:4908:4910:4975:5017:5093:5101:5154:5172:5296:5341:5447:5491:5564:5721:5746:5817:5865:5918:6084:6107:6249:6383:6638:6704:6705:7105:7124:7155:7213:7220:7296:7325:7432:7433:7656:7692:7731:7859:7886:7970:7986:8027:8090:8178:8188:8431:8440:8457:8478:8553:8566:8600:8603:8649:8721:8732:8750:8970:9023:9155:9180:9422:9432:9471:9510:9531:9586:9673:9720:9738:9771:9854:9945:10147:10217:10221:10316:10357:10398:10458:10486:10517:10607:10715:10763:10831:72:86:138:209:255:364:368:476:488:701:737:779:780:797:840:842:877:924:966:999:1020:1022:1047:1123:1170:1243:1271:1288:1375:1428:1449:1483:1582:1811:1876:1933:1998:2022:2070:2133:2153:2213:2261:2284:2654:2666:2717:2724:2806:2856:2898:2976:3024:3058:3102:3143:3176:3177:3202:3288:3395:3470:3491:3513:3640:3690:3772:3774:3789:3826:3884:3949:3991:4000:4051:4085:4097:4112:4191:4196:4203:4215:4257:4315:4384:4387:4432:4461:4467:4648:4668:4680:4703:4718:4744:4784:4814:4870:4914:4920:4944:5004:5012:5043:5145:5192:5265:5269:5285:5331:5336:5436:5609:5622:5652:5665:5671:5708:5718:5931:5959:6078:6087:6099:6103:6118:6178:6182:6206:6280:6283:6351:6403:6429:6455:6681:6706:6741:6783:6819:6917:6920:6926:6970:7004:7010:7024:7029:7033:7081:7093:7176:7249:7381:7421:7463:7468:7499:7538:7621:7622:7880:7946:7958:7969:7983:8049:8195:8211:8215:8256:8277:8493:8541:8545:8591:8604:8647:8723:8729:8743:8801:8809:8841:8848:8954:8975:9048:9089:9124:9145:9194:9209:9340:9341:9355:9412:9417:9424:9474:9546:9724:9734:9763:9813:9899:9935:9940:10032:10033:10068:10114:10160:10180:10293:10305:10325:10392:10425:10426:10450:10563:10613:10632:10657:10694:10709:10711:10713:10714:10719:10742:10832:6:101:106:121:144:229:278:282:335:378:382:397:478:564:572:671:682:691:722:748:799:825:848:849:957:1027:1077:1105:1134:1142:1188:1198:1219:1370:1385:1414:1427:1495:1562:1600:1631:1645:1653:1726:1751:1756:1757:1773:1777:1823:1828:1872:1887:2000:2009:2043:2152:2174:2179:2184:2218:2242:2264:2420:2457:2563:2600:2605:2607:2617:2626:2644:2716:2728:2799:2827:2875:2880:2881:2945:2952:2955:2973:3017:3062:3114:3149:3151:3168:3190:3191:3234:3244:3250:3286:3304:3366:3371:3388:3522:3524:3605:3647:3721:3724:3732:3733:3781:3827:3828:3838:3848:3851:3880:3887:3917:3922:3939:3971:3996:4019:4070:4105:4177:4181:4216:4273:4330:4337:4356:4411:4418:4466:4475:4505:4545:4608:4613:4637:4643:4655:4663:4764:4837:4888:4905:4930:4983:4985:5016:5052:5063:5114:5132:5158:5221:5245:5251:5308:5375:5457:5479:5495:5531:5558:5575:5602:5616:5682:5811:5943:5998:6060:6064:6080:6116:6209:6231:6240:6258:6259:6266:6277:6315:6354:6434:6486:6511:6546:6622:6640:6655:6673:6683:6684:6698:6699:6719:6755:6770:6797:6901:6931:6952:7076:7104:7117:7145:7148:7152:7158:7211:7214:7232:7284:7317:7324:7445:7466:7482:7525:7530:7578:7679:7702:7703:7736:7745:7750:7824:7889:7903:7943:7968:7977:8038:8041:8053:8120:8122:8141:8150:8308:8322:8353:8354:8391:8466:8480:8538:8585:8615:8674:8688:8722:8764:8794:8879:8905:9152:9188:9204:9210:9232:9256:9260:9287:9318:9376:9383:9470:9482:9545:9569:9638:9643:9644:9695:9708:9727:9760:9847:9885:9916:9933:10008:10063:10079:10097:10122:10164:10272:10369:10381:10403:10476:10496:10534:10545:10576:10580:10644:10737:10738:10739:10759:10795:2:14:28:44:51:74:97:116:120:139:140:143:170:195:211:223:230:231:237:246:270:279:396:427:480:495:507:509:530:543:554:575:591:600:617:643:649:700:706:746:765:778:794:845:850:873:878:896:927:945:1004:1048:1078:1098:1132:1171:1191:1192:1206:1225:1251:1298:1302:1318:1330:1377:1409:1429:1481:1496:1501:1516:1537:1574:1667:1705:1770:1785:1793:1817:1844:1882:1912:1927:1958:1980:2006:2056:2074:2097:2112:2119:2161:2272:2342:2364:2456:2458:2528:2554:2598:2601:2621:2646:2656:2694:2710:2713:2752:2769:2783:2803:2810:2834:2855:2990:3050:3055:3070:3098:3106:3116:3130:3200:3215:3312:3337:3352:3355:3397:3406:3422:3452:3467:3483:3492:3528:3561:3573:3606:3608:3626:3669:3671:3696:3697:3758:3765:3778:3800:3857:3859:3918:3960:3966:3970:3982:4002:4007:4084:4098:4132:4212:4225:4264:4266:4321:4324:4327:4345:4366:4375:4462:4469:4494:4495:4523:4541:4542:4579:4592:4683:4695:4702:4714:4760:4818:4822:4855:4913:4918:4968:4991:5020:5055:5166:5224:5262:5348:5403:5411:5429:5520:5539:5548:5561:5568:5573:5610:5626:5651:5686:5733:5772:5781:5818:5833:5854:5912:5971:5975:6022:6030:6061:6081:6112:6139:6183:6253:6269:6346:6371:6377:6408:6489:6494:6518:6531:6617:6631:6688:6703:6778:6787:6817:6904:6935:6972:6985:7023:7027:7126:7135:7169:7181:7188:7195:7231:7235:7239:7250:7261:7267:7291:7310:7320:7327:7330:7390:7402:7480:7492:7507:7532:7533:7534:7555:7586:7642:7645:7671:7680:7695:7737:7739:7806:7845:7996:8009:8063:8094:8166:8210:8220:8245:8246:8284:8339:8346:8383:8438:8455:8468:8500:8521:8562:8589:8602:8613:8630:8631:8640:8659:8684:8702:8705:8712:8730:8850:8884:8899:8936:8966:9033:9040:9060:9129:9158:9183:9230:9234:9235:9255:9262:9271:9305:9362:9426:9436:9447:9456:9458:9477:9480:9502:9508:9549:9571:9605:9606:9640:9651:9689:9706:9707:9716:9751:9788:9815:9835:9882:9948:10046:10092:10096:10101:10154:10168:10204:10211:10226:10227:10241:10355:10359:10363:10435:10436:10441:10460:10468:10509:10529:10530:10595:10597:10599:10612:10626:10676:10723:10782:10805:10835 -1:8981:3826:5279:5536:500:6960:7976:2785:0:8399:5076:5074:9704:7997:7731:5502:3638:9308:6241:6552:3685:3165:2800:1319:6187:9231:8443:1047:9513:9251:7276:41:8115:1155:7148:1066:996:6996:8297:3952:5378:3961:3560:6052:1228:6177:5476:6118:8348:5394:6402:6145:9736:1372:5391:9244:7958:3659:3511:725:3312:3762:2545:5545:280:9829:4873:4011:4105:4552:4998:3372:9552:3543:271:9666:5788:1458:276:1699:7247:8927:726:8362:9689:6835:7227:8529:1956:2913:3874:2263:1342:2484:7313:4355:5766:9386:7024:2333:8076:1564:7025:1781:8743:5565:9846:7010:3035:8507:5951:2451:4952:6503:4190:1489:4427:9950:644:7100:1147:8665:3229:6308:4125:3894:5836:8004:3244:6065:10089:5171:2796:7091:8360:7755:4914:7150:8367:10101:6816:4782:6770:10062:6237:7824:7504:1853:8201:4087:3679:1739:7170:8064:1161:3201:5344:6413:2304:4296:7404:827:6507:2269:3093:5566:8188:7020:138:3336:1999:3578:2284:5115:6416:8085:9739:1338:3681:9015:1687:3034:3121:3566:5941:242:1143:3647:6671:4521:9929:3519:6549:2972:1426:5894:6904:4976:8489:1583:1625:8335:2970:3653:5767:5311:8069:2914:4481:7866:9271:9119:516:3906:6102:8623:9758:1430:6851:2196:6535:10107:8554:999:9095:6294:9107:3935:9184:9298:2169:4636:1518:2774:3175:2620:7342:8150:63:337:6398:7740:9224:3297:5072:7121:3486:5110:6302:7580:9497:2662:3235:7401:7771:2239:2445:4523:5082:1900:3606:1987:7834:8258:5454:9732:1517:2369:4406:5301:5567:1616:2039:2324:6920:1448:2256:3321:6810:7411:657:6712:3386:3757:6453:4713:4885:5722:7336:9297:2739:4279:7214:8279:2191:2338:5009:5415:8734:987:7361:1178:3873:6434:9556:4265:5335:1578:2489:2986:600:6863:7716:4392:830:2680:3085:3612:7154:7452:8249:8337:1771:9367:9775:3042:6914:8604:1034:5050:4601:7409:9087:1288:8050:8596:9207:109:3949:6545:1100:3240:6640:745:7294:7722:1239:1668:7564:8124:8915:2557:2677:6656:8204:162:4890:1445:3294:6229:9176:6431:6684:2202:8577:9209:9332:3145:7048:9883:9974:2280:3674:5258:5712:6289:8544:2794:5592:9316:6023:437:1158:4862:5636:5825:8673:1058:5853:6617:7522:2270:4492:7139:9650:7341:9351:6693:7350:2261:6292:8744:9919:2752:4841:5763:7117:7745:1842:2221:4489:5522:5665:8278:8372:10112:2188:3860:3945:4097:5505:9572:713:3701:5749:9071:1077:1397:1753:7528:203:3500:3875:5462:8600:9245:3267:5979:6415:7651:8481:9233:5605:7257:8065:8807:3124:3804:1453:4249:5223:6979:625:2373:2589:8039:9555:2265:2415:3992:6911:8058:9506:10021:878:4083:6893:9036:3019:8799:1646:2367:5711:6199:7012:8157:8965:31:4891:5760:6284:8051:8764:9551:1447:1543:5645:6377:7463:7986:8126:796:4363:9418:2612:5315:5440:5975:6128:8852:1655:1833:3025:6125:8031:8163:8733:670:952:1741:2939:3539:4413:5233:7577:9049:9131:198:1586:5093:5569:6359:6646:9917:9923:2408:3886:4086:4897:1403:5158:5442:5778:5962:634:1471:1933:2199:2989:6391:8602:9457:1639:1645:2162:4718:7833:9785:10116:191:557:1774:2419:4954:6819:6891:9370:1567:1951:2050:2260:2306:2431:4092:6808:8145:889:1162:2422:3040:3523:4138:4294:6248:8668:2105:5876:6489:6575:7062:116:441:2320:3909:6208:6317:6439:196:935:1060:1954:4396:5903:6747:7391:7815:8323:8452:9743:1450:3997:4146:5810:7222:8442:225:2413:2513:2993:5327:5343:6249:7299:7458:1307:1320:1367:1731:2553:2788:3237:3571:3587:3702:5715:6323:7283:9301:1930:2352:3786:4676:5217:5342:6318:6485:7868:8631:1061:2007:3524:6148:463:730:1102:2748:4661:5211:6636:7576:9287:2855:6769:8755:1896:2481:3619:4497:5250:5446:7066:7248:7534:9155:767:1325:1594:6329:6916:7207:8520:9996:1109:1129:1377:2474:3451:4343:7702:8560:8974:8975:9055:9112:183:448:1547:1926:1953:2133:2928:3862:4029:4546:4638:4730:6058:6456:6529:7794:8499:9364:9831:9884:330:1112:1553:1775:2625:3841:5020:5737:6407:7473:7911:86:1751:1846:2622:3494:4433:5653:6233:6532:6595:6977:8237:8540:8655:9984:80:123:429:995:1009:1433:1800:2143:2631:3501:3676:4500:4904:5322:6322:6328:6343:7081:7670:7694:7823:9053:44:385:2234:2657:3075:3405:3670:4933:5035:5405:6467:8231:8697:9494:9626:43:1044:2954:4557:4827:6522:6932:7433:7583:7967:9402:550:683:1652:2504:2833:3972:5203:5622:5964:6004:6157:6658:7920:9751:172:218:759:1718:2085:2595:2937:3061:3795:3913:4688:5179:5393:5421:6623:8329:8862:9076:9129:9393:9579:9628:9821:9843:9976:87:143:2754:2781:4213:5965:6126:6336:7107:7179:7752:8151:8814:8934:9912:103:293:399:1154:1160:1487:1867:2421:2826:3403:3721:3922:4015:4243:4643:4985:5372:5467:5864:6225:6791:7578:8561:8686:9545:17:963:997:1488:1627:1703:1784:2279:2562:4018:4124:4207:4313:5094:5452:5548:5857:6076:6140:6253:6433:6568:7220:7302:7586:8037:9554:9559:9622:9627:39:768:2184:2687:3406:3531:3844:3940:3943:4361:4362:5678:5811:6219:6298:6455:6551:9978:257:742:967:2138:2418:2514:3489:4051:4458:4514:4628:4770:5667:6024:6606:7396:7632:7680:7776:8637:9403:9432:47:702:732:989:1254:1346:1580:1677:2139:2155:2355:2630:2921:3227:3477:3553:3760:3766:3771:5065:5618:6803:7619:7881:8636:9594:9899:10082:18:678:881:949:1232:1281:1332:1440:2164:2276:2461:2648:2880:2924:3260:3601:4219:4589:5490:5795:5855:5910:5933:5943:6111:7092:7128:7642:8333:8380:8474:8828:9182:9473:9645:248:252:375:380:439:481:857:1055:1862:4582:4882:4932:5410:5691:5701:5731:5917:7542:8196:8961:9256:9328:9357:9529:9531:9683:9798:15:124:142:272:680:1016:1033:1225:1282:1769:2212:2688:3957:4337:4405:4852:4857:4865:4973:5240:6460:7333:7425:7546:8089:8092:8401:8857:9587:9990:50:64:137:486:761:1091:1260:1275:2321:2860:3546:3689:3870:4130:4463:4599:6796:7007:7043:7195:7235:7515:8295:8892:274:545:1815:1943:2047:3366:3373:3692:3883:4666:5063:5102:5118:5717:5720:5824:6312:6404:7026:7306:7348:8105:8728:8821:8869:9577:9754:499:984:1224:1351:1499:1509:1765:1939:2135:2292:2974:3188:3356:3832:3904:4066:4082:4319:4592:4853:5444:5680:5708:5916:6267:7105:7374:7774:8241:8667:8709:9306:9768:9901:287:378:566:690:709:739:898:924:1654:1807:2008:2385:2619:2789:3303:3691:3979:4126:4391:5006:5007:5650:5666:6138:6158:6371:6560:6884:7638:7935:7999:8070:8177:8214:8426:8641:9511:9567:9757:9914:269:273:459:823:867:980:1011:1214:1229:1323:1502:1589:2810:3392:3655:4028:4043:4423:5215:5306:5416:6109:6946:7104:7320:8718:8986:9045:9060:9136:9937:52:243:374:403:868:1013:1119:1186:2362:2710:2849:3037:3064:3112:3285:3357:3462:3792:3803:4604:5200:5504:6022:6802:6828:7075:7304:7839:7949:8317:8355:8907:9500:364:532:580:668:1031:2674:2959:3010:3036:3084:3286:3707:3998:4300:5222:5380:6675:6738:6820:7389:7464:7835:8539:9051:9825:11:384:560:929:1213:1719:1756:1864:2837:3318:3667:4104:4128:4334:5195:5551:5986:6220:6251:6771:6782:6807:6864:6883:7468:7469:8420:9571:552:555:733:794:838:919:1018:1560:1802:1917:2125:2834:3636:3880:4465:4651:5249:5704:5892:5956:6033:6133:6202:6213:6849:7249:7501:7757:7808:7828:7983:8020:8192:8624:9102:9343:9443:9688:9864:10063:6:30:661:781:1108:1374:1778:1860:1873:1947:2429:2546:2776:3361:3381:3383:3579:3941:4160:4218:4749:4839:5022:5031:5202:5512:5762:6499:6626:7332:7440:7525:7760:8022:8290:8346:9491:9514:9596:9635:9702:9967:10043:125:401:407:511:630:992:1446:1598:1599:1734:1823:1911:2425:2670:2689:3359:3411:3512:3714:3917:3977:4155:4171:4529:4602:4700:5060:6198:6277:6686:6689:6691:6784:7441:7495:7549:7678:8114:8325:8381:8402:8536:9030:9144:9366:9613:9832:9985:127:458:513:693:1120:1164:1368:1590:1660:1759:1874:2171:2180:2409:3073:4164:4180:4545:4559:4793:4823:4969:4977:4987:5206:5269:6066:7281:7362:7439:7527:7582:7636:7739:7773:8096:8293:8354:8477:8680:8918:8926:9011:9050:9157:9191:9459:9463:9657:9705:9733:9791:9804:10073:692:705:762:801:1190:1193:1914:2465:2565:2759:3006:3158:3450:3456:3784:3800:3817:4056:4587:4894:5229:5340:5921:6381:6412:6515:6852:6913:7197:7209:7280:7539:7889:7910:8314:8334:8589:8784:8809:8859:8948:9315:9484:9773:9934:10074:10077:2:647:662:895:1181:1211:1278:1340:1582:1897:1982:1984:2009:2387:2414:2459:2602:2772:2836:3693:3751:4044:4053:4198:4227:4358:4725:5066:5097:5294:5587:5596:5736:6073:6130:6137:6363:6368:6597:7422:7563:7623:8030:8268:8311:8383:9118:9355:9553:9623:9740:9938:10020:10061:328:596:1021:1174:1924:2236:2322:2332:2399:2407:2536:2664:2690:2828:2987:3162:3204:3220:3300:3437:3525:3582:3867:4149:4169:4172:4394:4437:4738:5085:5147:5248:5284:5874:5887:6050:6162:6548:6703:6766:6786:6901:6978:7021:7083:7095:7368:7431:7477:7611:7628:7653:7655:7821:7872:7880:7937:8523:8591:8714:8829:9003:9063:9150:9369:9395:9461:66:131:491:523:605:626:638:786:1094:1199:1233:1241:1629:1797:1813:2064:2255:2468:2628:2703:3056:3123:3266:3317:3457:3561:3687:3850:4284:4348:4356:4414:4650:4847:4903:4971:4999:5144:5193:5281:5282:5598:5780:5787:5812:6072:6201:6327:6346:6373:6419:6708:6736:6772:7056:7146:7147:7178:7262:7442:7553:7661:7906:7991:8057:8171:8547:8642:8817:8955:8996:9264:9544:9607:9646:9784:9799:9842:10023:10045:10086:34:466:553:567:870:897:1087:1279:1538:1738:1798:2140:2281:2485:2659:2753:2812:2963:2995:3044:3146:3223:3264:3455:3775:4256:4430:4457:4512:4671:4794:4829:4906:4996:5090:5209:5270:5354:5570:5648:5686:5747:5779:5983:6034:6054:6168:6307:6314:6315:6319:6417:6488:6894:6918:6923:7093:7101:7102:7230:7435:7532:7696:7741:7921:7940:8261:8306:8382:8387:8403:8471:8661:9044:9101:9296:9406:9429:9501:9536:9584:9636:9830:40:160:290:329:351:370:446:533:672:844:891:917:1141:1341:1485:1507:1558:1620:1642:1648:1729:1882:1971:1986:2057:2079:2158:2176:2277:2305:2375:2379:2665:2946:3160:3166:3241:3355:3603:3650:3719:3865:4040:4057:4074:4110:4255:4327:4454:4565:4576:4591:4641:4644:4845:5124:5190:5227:5235:5474:5481:5682:5796:5803:5958:6152:6295:6394:6444:6567:6584:6692:6756:6787:6859:6985:7223:7377:7383:7626:7838:7874:7972:7974:8172:8186:8215:8256:8263:8496:8693:8760:8777:8815:9023:9096:9164:9371:9467:9900:9905:9965:10016:10071:33:51:267:282:420:442:473:497:583:615:699:700:770:773:807:1065:1212:1234:1535:1659:1707:1991:2054:2113:2343:2382:2500:2532:2597:2720:2803:2844:2983:3144:3179:3197:3212:3338:3476:3666:3713:3962:3981:4009:4100:4188:4316:4381:4653:4948:5113:5140:5252:5341:5381:5497:5524:5595:5725:5743:5744:5772:5845:5866:5881:5952:5984:5993:6451:6470:6556:6557:6622:6746:7263:7346:7547:7589:7593:7650:7695:7853:7860:8028:8147:8164:8218:8413:8511:8944:8993:9065:9088:9161:9174:9258:9568:9881:216:349:430:531:578:648:677:769:783:831:852:942:956:969:1075:1265:1310:1376:1382:1396:1423:1524:1561:1600:1672:1683:1690:1931:1967:1985:2023:2053:2065:2090:2187:2393:2643:2668:2733:2930:2966:3065:3070:3350:3585:3598:3673:3705:3744:3855:4080:4157:4162:4203:4301:4456:4588:4655:4744:4930:5047:5129:5652:5677:5713:5781:5838:6358:6440:6448:6793:6805:6821:6973:7162:7245:7455:7481:7556:7562:7699:7941:7998:8024:8178:8227:8269:8364:8453:8494:8530:8689:8725:8778:8858:8924:8945:9165:9172:9262:9368:9465:9558:9619:9667:9814:9879:9936:9960:9981:10044:10053:10055:23:132:240:284:291:395:411:483:542:642:675:793:877:932:970:1000:1015:1103:1292:1324:1352:1451:1492:1500:1682:1742:1827:1898:1916:2070:2111:2132:2472:2554:2592:2617:2713:2727:2851:2952:2977:3053:3063:3398:3554:3615:3623:3641:3688:3768:3789:3896:3932:3955:4534:4784:4819:4860:4905:5180:5244:5586:5600:5714:6093:6139:6151:6262:6348:6361:6422:6477:6637:6754:6806:6900:7016:7129:7159:7216:7240:7256:7260:7303:7360:7375:7444:7561:7645:7686:7712:7721:7748:7978:7993:8095:8154:8195:8210:8304:8308:8336:8391:8424:8430:8437:8444:8486:8576:8585:8594:8688:8769:8876:8970:9337:9352:9426:10094:10098:101:105:106:147:153:238:277:332:339:388:416:469:488:522:803:890:982:1012:1073:1149:1151:1184:1227:1255:1336:1348:1398:1776:2033:2150:2318:2436:2698:2771:2780:2807:2858:2867:2944:3009:3016:3154:3233:3239:3558:3574:3743:3785:3809:3857:3966:4096:4200:4217:4246:4351:4354:4368:4513:4633:4742:4878:4921:4967:5117:5172:5247:5280:5387:5419:5465:5483:5627:5670:5797:5802:5804:5879:5898:6042:6091:6210:6271:6293:6442:6478:6578:6700:6719:6881:6892:6921:6933:7051:7142:7181:7192:7244:7334:7349:7599:7927:7929:7969:8005:8052:8125:8153:8212:8255:8265:8310:8353:8409:8459:8555:8580:8712:8750:8952:8994:9079:9214:9288:9319:9427:9444:9452:9516:9698:9774:9816:9817:9928:10092:259:476:594:632:688:791:815:822:876:941:958:1045:1085:1115:1116:1152:1167:1183:1264:1313:1364:1409:1494:1573:1593:1640:1656:1691:1712:1730:1876:1913:1925:1949:2024:2027:2051:2059:2142:2345:2560:2604:2700:2830:2832:2915:3086:3114:3131:3288:3370:3469:3471:3504:3625:3678:3749:3756:3842:3881:4030:4122:4321:4342:4571:4692:4736:4893:4896:5010:5032:5058:5073:5219:5532:5547:5615:5746:5843:5858:5891:6117:6207:6236:6334:6506:6601:6631:6836:6898:6984:7033:7089:7106:7140:7203:7298:7568:7597:7664:7682:7742:7775:7840:7849:7857:7944:7954:8056:8131:8158:8159:8199:8223:8671:8846:8860:8861:8958:9066:9069:9291:9396:9481:9486:9510:9582:9827:9888:9889:9949:10103:16:94:179:194:212:241:338:415:504:510:529:530:535:537:586:623:824:893:906:1030:1107:1146:1166:1222:1354:1419:1437:1709:1722:1779:1850:1974:2015:2043:2067:2102:2227:2313:2388:2392:2405:2423:2457:2512:2558:2675:2693:2808:2829:2846:2984:3013:3115:3261:3275:3335:3575:3609:3643:3662:3706:3893:3950:4135:4299:4360:4486:4526:4554:4621:4672:4806:4810:4814:4815:4912:4941:4949:4953:5028:5040:5088:5185:5187:5213:5363:5367:5375:5422:5427:5451:5456:5496:5530:5588:5625:6078:6160:6183:6297:6304:6395:6596:6666:6673:6761:6856:6919:6997:7034:7071:7076:7096:7169:7205:7231:7308:7398:7402:7437:7447:7498:7503:7567:7572:7598:7730:7795:7968:8043:8080:8107:8313:8324:8342:8373:8429:8434:8565:8710:8740:8745:8781:8787:8810:8825:8885:8919:8935:8995:9005:9025:9073:9158:9175:9289:9290:9350:9392:9445:9458:9496:9601:9604:9632:9652:9661:9716:9730:9749:9813:9845:9870:10009:10017:10028:10038:3:10:19:28:231:275:283:311:317:341:432:467:470:562:601:629:685:687:712:727:749:805:1008:1022:1043:1072:1088:1089:1098:1136:1205:1217:1245:1295:1356:1480:1482:1638:1758:1793:1835:1893:1903:1993:2073:2077:2081:2115:2127:2137:2157:2186:2200:2211:2275:2336:2356:2357:2359:2400:2426:2470:2509:2681:2740:2951:3015:3049:3077:3094:3187:3222:3269:3329:3349:3354:3399:3419:3423:3425:3438:3509:3514:3640:3720:3736:3774:3787:3884:4038:4075:4116:4136:4159:4185:4209:4285:4292:4353:4370:4403:4404:4439:4447:4635:4649:4693:4781:4789:4792:4825:4854:4883:4944:5055:5080:5125:5136:5156:5201:5207:5228:5236:5267:5355:5414:5438:5619:5662:5689:5690:5695:5721:5759:5783:6286:6321:6330:6383:6486:6591:6605:6634:6661:6695:6716:6848:6879:6939:6970:7005:7006:7078:7115:7130:7152:7153:7271:7381:7484:7500:7529:7571:7585:7634:7688:7719:7763:7841:7845:7942:7950:8017:8045:8059:8063:8091:8116:8252:8347:8428:8458:8537:8599:8654:8672:8706:8715:8761:8803:8833:8870:8894:9143:9253:9295:9318:9363:9450:9468:9476:9508:9583:9653:9763:9789:9797:9851:9890:9915:9918:9944:9953:9958:10080:10102:54:62:92:151:235:250:263:265:340:344:347:381:433:455:478:480:509:598:645:722:780:789:806:828:845:858:882:931:973:988:991:1074:1080:1092:1113:1168:1206:1215:1250:1327:1349:1389:1394:1530:1563:1701:1772:1789:1844:1870:1988:1994:2069:2209:2219:2298:2342:2406:2482:2493:2585:2626:2699:2715:2732:2742:2756:2835:3038:3104:3174:3342:3362:3409:3467:3517:3528:3545:3600:3618:3644:3697:3704:3741:3765:3798:3831:3858:3866:3959:4039:4251:4258:4259:4276:4315:4372:4509:4548:4555:4569:4586:4595:4607:4613:4674:4703:4706:4767:4787:4833:4981:5012:5064:5077:5086:5098:5101:5164:5214:5276:5314:5337:5514:5523:5582:5668:5728:5786:5790:5931:6037:6064:6106:6164:6222:6231:6269:6274:6288:6325:6384:6436:6468:6542:6572:6603:6629:6674:6751:6760:6878:6948:6955:6965:6999:7046:7067:7074:7084:7110:7122:7132:7156:7212:7229:7310:7367:7388:7400:7414:7426:7474:7491:7543:7612:7633:7780:7805:7809:7816:7882:7899:7917:7926:7952:7980:7984:8011:8035:8061:8074:8118:8182:8271:8320:8417:8466:8478:8488:8551:8575:8586:8627:8719:8795:8813:8822:8832:8854:8890:8898:8921:8953:8959:8983:9086:9097:9105:9106:9115:9177:9181:9208:9219:9225:9239:9284:9345:9518:9563:9609:9634:9668:9679:9711:9712:9729:9762:9770:9776:9793:9868:9947:9992:10018:10072:10099:10117:20:68:73:82:119:120:140:168:316:320:335:355:413:451:452:453:501:581:587:616:622:639:691:728:743:751:812:817:826:840:864:916:978:981:1003:1071:1110:1122:1124:1156:1248:1262:1286:1289:1317:1418:1449:1454:1508:1511:1512:1520:1571:1597:1602:1664:1724:1757:1820:1831:1883:1938:1955:1968:2020:2107:2206:2228:2231:2354:2361:2384:2412:2433:2469:2473:2537:2547:2614:2692:2701:2707:2730:2798:2841:2862:2878:2882:2905:2961:2980:2996:3082:3092:3097:3176:3177:3214:3283:3295:3360:3416:3454:3473:3529:3569:3581:3608:3613:3639:3646:3694:3709:3729:3752:3853:3859:3892:3964:3976:4007:4060:4088:4089:4102:4142:4143:4150:4158:4166:4173:4220:4257:4340:4366:4462:4473:4478:4527:4560:4575:4656:4663:4669:4721:4733:4741:4774:4803:4812:4830:4848:4856:4924:4942:5002:5013:5042:5081:5143:5166:5170:5186:5199:5231:5251:5260:5290:5298:5303:5361:5370:5396:5463:5513:5554:5561:5604:5607:5628:5684:5730:5751:5798:5829:5848:5890:5923:5928:6006:6063:6112:6209:6245:6263:6265:6411:6528:6569:6585:6593:6615:6627:6639:6641:6642:6706:6714:6742:6748:6797:6837:6938:6986:6992:6993:7009:7031:7063:7118:7149:7171:7172:7206:7234:7237:7250:7279:7297:7331:7344:7424:7445:7462:7548:7652:7667:7669:7690:7701:7783:7852:7871:7876:7890:7901:7915:7928:7959:7987:8054:8062:8130:8152:8166:8180:8219:8235:8240:8273:8283:8341:8467:8472:8485:8619:8635:8649:8690:8700:8731:8823:8908:8912:8972:8979:9009:9012:9024:9040:9078:9128:9168:9226:9285:9286:9312:9339:9412:9416:9431:9462:9505:9523:9526:9530:9539:9595:9625:9644:9674:9686:9706:9724:9782:9792:9808:9810:9927:9957:10006:10011:10014:10032:10084:32:177:201:251:305:318:333:365:368:371:445:495:538:592:608:682:724:800:834:854:888:909:912:923:951:1024:1057:1137:1142:1153:1219:1223:1257:1280:1361:1375:1404:1498:1522:1587:1633:1635:1675:1681:1689:1708:1715:1747:1922:1927:1929:1936:1960:2018:2021:2123:2131:2161:2174:2230:2300:2310:2316:2323:2337:2410:2455:2464:2534:2544:2563:2575:2587:2590:2666:2694:2702:2736:2775:2799:2802:2888:2899:2912:2936:2967:2981:3007:3011:3020:3059:3068:3069:3130:3133:3152:3181:3195:3208:3215:3249:3255:3276:3281:3299:3328:3339:3348:3365:3397:3430:3461:3465:3513:3536:3551:3562:3576:3590:3657:3700:3818:3849:3970:3973:4027:4054:4078:4115:4119:4154:4163:4170:4176:4181:4186:4214:4224:4226:4239:4272:4318:4339:4471:4528:4541:4556:4561:4567:4573:4594:4622:4642:4645:4647:4664:4780:4805:4869:4895:4898:4909:4911:4922:4960:4963:4966:4978:4979:4991:5008:5079:5205:5208:5218:5261:5349:5403:5404:5408:5441:5484:5499:5516:5541:5556:5557:5575:5656:5688:5703:5732:5755:5757:5770:5773:5814:5907:5960:5972:5974:6010:6014:6071:6074:6082:6094:6123:6181:6186:6193:6206:6216:6247:6252:6291:6344:6352:6367:6378:6386:6396:6399:6430:6435:6450:6459:6462:6464:6474:6497:6504:6543:6546:6579:6598:6613:6624:6660:6697:6726:6744:6792:6841:6846:6867:6872:6877:6926:6928:6967:6971:7037:7050:7068:7103:7120:7123:7137:7184:7185:7243:7246:7251:7307:7319:7371:7384:7399:7418:7467:7550:7555:7581:7591:7635:7663:7666:7676:7681:7708:7772:7778:7810:7813:7818:7819:7891:7898:7914:7918:7953:7973:8016:8025:8086:8123:8142:8144:8230:8267:8285:8291:8302:8322:8332:8338:8393:8407:8433:8461:8465:8483:8620:8630:8722:8735:8749:8756:8768:8783:8797:8839:8849:8904:8922:8936:8939:8949:8966:8971:8992:9007:9032:9098:9109:9111:9138:9173:9185:9188:9205:9246:9247:9277:9307:9387:9400:9415:9435:9437:9453:9470:9483:9512:9517:9519:9532:9564:9659:9676:9731:9747:9780:9824:9858:9860:9863:9875:9926:9945:9959:9980:9998:10012:10025:10049:10083:12:24:76:88:98:126:146:157:223:270:315:409:410:422:484:508:521:554:584:621:655:658:686:715:717:754:802:853:861:865:913:937:948:972:998:1051:1086:1096:1130:1131:1176:1221:1230:1296:1345:1357:1371:1393:1395:1399:1415:1416:1438:1444:1465:1466:1490:1496:1555:1556:1572:1626:1636:1665:1671:1679:1710:1713:1720:1733:1782:1785:1786:1795:1801:1805:1810:1816:1879:1908:1942:1959:1977:1989:1997:1998:2031:2042:2075:2099:2114:2118:2179:2210:2214:2226:2254:2268:2294:2299:2315:2329:2346:2386:2417:2428:2449:2454:2502:2522:2528:2535:2548:2577:2582:2613:2650:2683:2718:2724:2726:2743:2814:2822:2838:2848:2857:2859:2863:2874:2897:2926:2929:2932:2956:2969:3004:3029:3043:3058:3079:3101:3116:3139:3140:3142:3182:3250:3289:3304:3305:3340:3369:3382:3390:3395:3422:3427:3435:3443:3480:3483:3507:3564:3594:3599:3611:3624:3635:3642:3661:3683:3684:3695:3742:3769:3782:3788:3811:3812:3815:3951:3996:4003:4024:4032:4059:4071:4094:4120:4152:4161:4175:4206:4235:4237:4242:4254:4264:4302:4314:4341:4365:4449:4459:4494:4517:4522:4532:4533:4572:4580:4606:4609:4634:4667:4694:4701:4758:4764:4766:4768:4801:4808:4834:4874:4879:4887:4889:4908:4920:4923:4956:4957:4974:4986:5041:5054:5059:5092:5099:5105:5107:5142:5152:5177:5196:5232:5272:5292:5317:5319:5326:5329:5353:5362:5365:5423:5425:5436:5507:5509:5538:5571:5579:5616:5623:5630:5640:5651:5657:5672:5698:5702:5716:5756:5776:5784:5806:5820:5839:5847:5870:5888:5912:5999:6008:6045:6067:6079:6114:6134:6154:6167:6170:6204:6211:6257:6273:6279:6366:6370:6372:6375:6390:6406:6449:6490:6491:6502:6513:6533:6565:6610:6619:6654:6659:6667:6672:6722:6743:6753:6764:6774:6777:6829:6833:6887:6949:6957:6966:6994:7023:7108:7133:7163:7165:7180:7188:7225:7236:7272:7287:7322:7329:7366:7373:7419:7470:7471:7479:7490:7502:7516:7530:7552:7595:7615:7620:7643:7646:7658:7659:7675:7782:7788:7800:7803:7825:7836:7846:7873:7912:8021:8049:8100:8122:8132:8138:8148:8162:8179:8189:8206:8238:8243:8280:8307:8309:8316:8358:8365:8384:8400:8408:8462:8495:8559:8569:8590:8621:8622:8683:8699:8701:8723:8748:8816:8818:8842:8850:8884:8895:8897:8923:8957:8985:8987:8998:9070:9084:9103:9116:9137:9156:9197:9200:9201:9215:9237:9260:9270:9280:9309:9313:9329:9336:9361:9374:9389:9408:9455:9485:9489:9561:9600:9606:9651:9660:9662:9663:9682:9753:9787:9796:9802:9836:9849:9894:9910:9977:9994:9995:10005:10010:10069 -1:67:28:20:80:73:66:68:17:4:13:51:52:74:71:59:19:38:81:64:18:11:36:75:15:0:78:48:23:16:47:61:29:70:60:25:9:22:40:77:7:33:42:8:37:26:49:2:12:31:39:21:76:24:3:14:55:44:65:6:41:32:69:27:72:79:62:50:53:63:58:54:43:57:30:34:1:35:46:10 -1:2881:0:3633:7822:2464:2355:2621:6615:8991:1695:2098:7028:3918:6082:562:1678:4454:2481:5590:8420:3473:4302:3385:2122:608:494:6696:4010:380:5940:1342:2190:6005:5469:5938:4601:4181:3227:6170:6938:3968:5734:734:2113:5532:22:2805:2630:7429:3796:2185:4151:9455:8172:5951:4375:4821:7691:6260:6691:57:5176:677:932:6506:273:2848:2180:2238:5084:6108:788:6084:5297:4742:4826:1909:7700:4651:8274:2271:5969:6964:2724:2868:7600:4332:6530:4140:2655:5306:8307:9179:1217:2721:7168:1588:5802:7267:1417:8053:5811:6070:5467:5846:1067:3288:6431:9015:2377:2878:8805:2830:4561:2947:6929:4070:1297:8448:5193:6707:2812:406:5107:1862:12:2437:2169:2803:7705:3696:7986:6160:5502:8224:2659:7827:5881:5391:8390:8549:9418:4975:7234:8680:1026:4795:5044:6623:4580:446:6745:3510:8742:2346:8231:9360:7217:2851:73:5834:1876:4026:2146:2412:3499:6723:6799:662:1147:1453:9138:6677:7835:3743:7344:638:6075:1788:7850:6634:713:2754:3533:5233:878:5820:4665:6397:7821:5224:3841:5927:6097:333:1968:5913:6028:1129:2608:4734:6881:348:322:2335:4584:5087:6656:1671:2628:2504:946:7444:63:606:1262:1607:3963:5305:5562:7719:1547:4701:4920:3791:5081:87:1666:9016:4343:4345:4880:6042:78:2014:5048:337:1848:6449:3706:3759:4006:6272:1177:8512:6091:8740:1751:3962:4380:8108:1352:5199:667:3284:1615:2033:4319:5793:6720:7397:8878:9362:468:1316:3055:4040:4916:844:3623:8632:2645:4407:9330:5365:6536:3738:1017:6021:2027:8169:8236:9152:859:3058:4359:4876:5076:9239:92:1974:5534:5864:5999:213:3366:8734:9200:6974:8605:2497:3779:7177:7574:8251:8685:2707:2971:7214:7316:8176:2420:2562:120:3619:5906:7120:1366:4077:4195:4735:5344:104:691:1685:2808:4660:4763:5968:1365:6752:7207:1894:778:3626:6484:6937:7242:7492:8631:1458:2073:2489:3134:9088:281:838:2539:5774:9113:926:4097:6333:26:3518:6898:8479:8592:328:3428:6283:7161:8101:9183:1311:3673:3789:4588:5526:7174:8868:548:2912:3865:5704:7438:8865:9338:2580:3100:7479:727:1668:3001:3178:9042:1223:1531:3661:4980:5366:9133:9282:9463:525:1565:1655:5425:8712:8813:587:2276:3230:7425:7488:8116:681:1956:2414:4451:5317:5871:7188:1086:2925:5759:6113:8222:8393:9153:2840:7754:8185:9248:1265:8214:8780:8884:8954:2235:2978:3683:5922:7180:7190:7579:21:148:2368:2442:7411:9447:758:2132:3874:4381:6037:7962:8192:8700:1186:1445:2989:3330:4926:5358:6777:7604:7698:7892:8262:8594:9402:29:254:382:1166:1828:5433:5883:7280:8314:3604:5631:160:903:1504:3620:6467:6624:6838:2465:3415:103:202:1613:2767:3264:7445:7966:8672:2578:2842:2917:3883:4092:6040:7252:7502:1075:1694:3395:4705:6921:7273:7275:7463:7585:8567:8727:274:879:923:1032:2550:3036:3064:5323:6555:6556:7059:7111:7240:7303:7571:7649:8747:8808:8873:1367:1636:2411:5179:6365:6543:7509:9141:1700:1810:1928:2611:2650:3418:4061:5606:5681:6085:7443:7678:8093:8724:373:636:2765:3031:3347:3545:3701:3885:3964:4560:6020:6627:6648:6682:7323:7814:7881:8294:9050:9279:9349:9390:867:1527:3072:3351:4783:5565:5707:5730:5755:6712:7732:8525:8974:9166:161:639:1250:2023:3047:3304:4477:4481:4832:1035:2895:3585:4221:5187:5255:5945:6101:7335:7899:9429:323:421:452:456:857:897:1994:2029:2501:2673:2888:2959:3106:3793:4765:5765:6435:7078:7139:7209:7470:7769:8635:109:239:663:2197:3583:3997:5918:6154:6943:7293:8423:8710:8945:9090:9253:90:1021:1357:2279:2530:3013:3138:3640:4210:4895:5138:5689:6235:6405:6554:7035:7783:7882:8425:8788:9154:9214:572:1479:1996:2066:2243:2585:2965:3096:3311:3960:4209:4244:4318:4729:4929:5113:6215:6780:6886:7437:7544:7672:7704:8324:8442:8577:9394:9406:471:597:613:1952:2822:3354:3535:5325:6814:7117:7942:8202:8349:8417:8701:9052:195:605:735:1153:1204:2663:3699:4537:4739:4794:4870:5438:5744:6015:6700:7216:7228:7473:8266:8386:8465:9158:156:398:1323:2488:2571:3110:3234:3329:3462:3739:3817:4411:4540:5671:6096:6146:6362:6441:6517:7006:7170:8359:8470:8534:8602:8746:8904:257:550:630:894:1054:1869:2594:3509:3617:3674:3943:4225:4486:4555:5456:5717:5718:6196:6714:7431:7915:8204:8210:8342:8481:8624:9426:130:927:1253:1358:1440:1553:2349:2423:2739:3129:3221:3716:4687:4828:4886:5559:6979:7003:7863:7890:8189:8658:8814:9266:795:1099:1877:2177:2296:2757:2982:3153:3177:3352:3445:3882:3923:4222:4536:4626:5361:5560:5720:6692:6711:6859:8086:8165:8410:8834:8952:8988:72:1386:1423:1891:2347:2863:3070:3342:4004:4130:4400:4545:5661:6243:7042:7748:8181:8528:8621:9423:263:936:1102:1742:2037:2181:2714:3514:3647:3939:4076:4850:5001:5867:6345:7224:7434:7548:7996:8102:8213:8827:647:805:1016:1073:1686:2847:4058:4113:4771:4804:4841:4888:4970:5056:5946:5997:6198:6516:7468:7619:8082:8230:8249:8718:9047:9194:105:645:748:1954:2088:2264:2327:2459:2558:2574:2626:2670:2682:3010:3596:3729:4068:4149:4364:4683:4838:5070:5139:5240:5960:6386:6911:6988:7039:7186:7676:7820:8489:9256:9383:751:1060:1406:1492:1972:2221:2262:2263:2311:2494:2937:3219:3904:4158:4260:4432:4813:4835:5696:5886:5893:6256:6668:6742:7328:7385:7998:8157:8714:194:497:1042:1200:1670:1712:1930:2577:3012:3365:3677:3740:3783:3902:4323:5604:5662:6842:7076:7175:7365:7752:7919:8160:8195:8396:8557:9175:9178:320:1159:1340:1640:2424:2987:3027:4279:4286:4431:5435:5739:5982:6504:7274:7773:7957:8300:8429:8843:9421:982:1833:1890:2058:2191:2579:2656:2927:3634:3835:4001:4370:4805:4847:5747:5823:5912:6626:7312:7352:7525:8389:9386:245:246:377:444:1317:1463:1539:1770:2046:2227:2268:2507:3784:3858:4310:4366:5010:5335:5401:5655:5656:5701:5716:5760:6319:6997:7687:7718:7875:7963:8132:8134:8313:8316:8329:8483:9127:9353:40:303:335:627:634:2325:2357:2809:3125:3431:3893:3909:4002:4121:4127:4440:4567:4940:5267:5421:5478:5537:5542:5595:6010:6301:6340:6492:6592:7069:7269:7487:7513:7545:7715:7897:8366:8372:8929:9388:9396:127:449:532:563:738:1150:1414:1425:1641:1831:1975:2000:2097:2595:2607:2875:2916:3390:3404:3416:3609:3624:4337:4499:4610:5200:5222:5334:5585:5682:6110:6151:6750:7223:7264:7491:7733:7838:7847:7856:7916:8458:8912:8943:9026:143:225:339:399:401:659:1094:1134:1484:1532:1764:2074:2160:2187:2266:2387:2458:2520:2546:2606:2992:3093:3343:3405:3421:3487:3579:4297:4315:4516:4603:4755:5032:5238:6132:6250:6379:6413:6680:6762:7330:7386:7576:8005:8099:8627:8926:9089:9126:9156:9210:9468:379:400:689:818:863:1034:1256:1303:1551:1587:1622:1731:1804:1814:2153:2448:2675:2869:3007:3147:3413:3733:3787:3938:4373:4458:4498:4508:4667:4806:4959:4983:5376:5552:6201:7347:7931:8411:8472:8564:8576:8630:9244:9312:66:580:653:941:1243:1633:1854:2007:2067:2148:2186:2188:2492:2884:3038:3088:3133:3207:3389:3516:4027:4159:4167:4422:5144:5302:5371:5463:5573:6518:6867:7178:7432:7873:7984:8331:8430:8494:8518:8666:8699:8713:8848:8862:8956:9132:9146:41:67:350:394:407:739:830:836:1018:1305:1883:2129:2164:2400:2451:2527:2898:2956:3003:3015:3166:3361:3444:3646:3813:3822:3854:3871:4300:4445:4564:4732:4942:5455:5643:5738:5971:6041:6088:6167:6177:6287:6391:6438:6461:6790:7100:7682:7967:8151:8286:8339:8566:8614:8633:8831:9444:150:187:208:294:496:522:583:673:1001:1208:1235:1611:1768:1827:1918:2291:2393:2457:2649:2713:2796:2802:3087:3145:3152:3169:3328:3412:3669:3689:3770:3982:4117:4123:4162:4281:4474:4790:4837:4846:5109:5159:5217:5363:5516:5519:5538:5728:5818:6064:6109:6120:6278:6589:6621:7018:7311:7329:7341:7596:7780:7830:7832:7914:8020:8308:8450:8745:8913:8937:8942:9059:9420:108:260:345:355:515:534:706:989:1360:1396:1606:1661:1714:1717:1759:1893:1924:2068:2080:2119:2198:2218:2250:2265:2280:2565:2588:2598:2617:2873:2874:3042:3386:3403:3426:3438:3568:3638:3829:3948:4096:4519:4559:4730:4796:4854:5180:5326:5384:5933:6217:6317:6320:6595:6673:6753:6989:7000:7080:7145:7166:7418:7454:7564:7593:7608:7642:7689:7992:8014:8344:8568:8663:9001:9098:9255:38:182:198:307:484:557:682:709:718:835:858:874:889:993:1115:1130:1221:1237:1251:1261:1267:1280:1322:1699:1744:1786:1979:1980:2013:2124:2319:2622:2725:3076:3160:3215:3391:3537:3564:3767:4059:4069:4396:4397:4505:4587:4609:4621:4654:4674:4769:5063:5158:5229:5453:5592:5622:5798:5908:5920:5963:5996:6003:6014:6044:6294:6373:6473:6489:6495:6558:6684:6717:6741:6781:6803:6871:6991:7353:7508:7510:7535:7637:7793:8057:8356:8639:8918:8965:9120:9310:9459:9477:115:131:153:435:674:891:984:1020:1118:1161:1278:1282:1335:1337:1371:1450:1575:1604:2093:2234:2288:2345:2519:2541:2575:2729:3065:3111:3176:3283:3357:3442:3477:3497:3644:3864:4029:4095:4115:4161:4267:4277:4383:4412:4482:4483:4515:4606:4657:4744:4746:5052:5399:5432:5457:5481:5651:5757:5860:5941:6347:6470:6735:6874:6966:7063:7065:7197:7276:7297:7440:7643:7669:7787:7871:7981:7985:8025:8038:8068:8156:8196:8320:8330:8404:8418:8455:8587:8872:9076:9145:9205:100:145:151:185:200:466:626:759:829:876:955:978:1008:1070:1093:1350:1471:1650:1656:1673:1722:1752:1851:1896:2019:2125:2300:2339:2353:2430:2513:2699:2769:2774:2799:2929:3039:3066:3194:3266:3274:3394:3653:3658:3708:3971:3974:4003:4022:4317:4378:4387:4504:4583:4600:4625:4721:4767:4840:5012:5100:5258:5332:5394:5666:6019:6102:6152:6191:6257:6380:6464:6545:6824:6998:7210:7294:7327:7364:7448:7460:7557:7582:7603:7665:7675:7868:7923:7951:8322:8335:8648:8676:8703:8906:9071:9163:9177:9259:9287:9308:9340:24:306:595:656:699:870:904:1085:1088:1121:1240:1241:1304:1363:1552:1950:2026:2176:2202:2232:2251:2380:2403:2532:2667:2712:2856:2904:2967:3029:3150:3190:3232:3243:3422:3447:3459:3744:3758:3878:3942:3954:4045:4063:4493:4506:4518:4523:4554:4571:4604:4638:4753:4788:4825:4878:4900:5041:5068:5071:5160:5197:5449:5505:5561:5583:5601:5697:5851:5934:6033:6124:6274:6361:6375:6385:6525:6599:6708:6800:6843:6853:7013:7027:7208:7380:7483:7636:7776:7809:8177:8184:8233:8328:8370:8490:8492:8619:8736:8841:8890:8901:8923:9055:9123:9160:9199:9381:9398:96:193:271:362:388:434:462:473:478:489:543:551:559:648:651:683:768:803:814:902:1039:1103:1142:1207:1214:1330:1382:1447:1488:1525:1537:1616:1938:2002:2047:2170:2173:2179:2394:2417:2456:2516:2752:2883:3091:3121:3208:3286:3369:3432:3525:3691:3720:3952:3999:4135:4415:4423:4478:4549:4733:4749:4791:4849:4853:4921:4945:5024:5169:5189:5198:5264:5289:5296:5315:5615:5699:5754:5772:6078:6086:6123:6143:6295:6396:6501:6659:6697:6811:6848:6985:7019:7108:7181:7187:7211:7243:7304:7310:7390:7602:7711:7731:7778:7819:7843:7911:8012:8137:8178:8223:8226:8265:8500:8589:8604:8620:8683:8771:8853:8961:9013:9185:9189:9261:9264:9366:9379:9380:207:308:314:326:360:376:593:623:732:740:807:843:849:890:934:956:1104:1107:1146:1188:1244:1269:1308:1348:1477:1503:1659:1711:1747:1857:1889:1900:2082:2151:2182:2246:2289:2679:2753:2876:2938:3006:3009:3028:3062:3224:3336:3476:3544:3641:3688:3746:3845:3889:3896:4000:4163:4175:4257:4283:4382:4390:4456:4472:4496:4715:4879:5098:5195:5292:5367:5480:5487:5584:5594:5607:5753:5829:5853:5954:6046:6308:6426:6466:6560:6596:6675:6756:6774:6826:7062:7087:7137:7412:7442:7623:7740:7859:7965:8003:8021:8074:8149:8153:8296:8348:8438:8441:8590:8646:8705:8812:8819:8886:9151:9164:9202:9258:9356:9460:9471:9476:3:32:62:91:201:224:317:397:437:569:610:660:672:703:833:846:912:960:1051:1193:1369:1430:1509:1556:1568:1662:1677:1720:1780:1850:2009:2060:2141:2230:2317:2364:2445:2485:2496:2526:2736:2855:2923:2946:2961:3079:3113:3156:3175:3201:3372:3409:3469:3548:3600:3682:3711:3888:3935:3978:4014:4035:4177:4213:4214:4316:4331:4402:4427:4459:4465:4502:4535:4611:4623:4630:4658:4673:4680:4800:4807:4855:4891:4946:5060:5102:5161:5216:5228:5395:5523:5543:5568:5645:5664:5787:5794:5800:6045:6144:6180:6189:6229:6269:6290:6339:6451:6460:6540:6551:6690:6751:6797:6798:6815:6897:6944:6962:6973:7011:7031:7236:7239:7331:7349:7406:7417:7530:7567:7573:7801:7837:7866:7889:7972:8017:8141:8155:8282:8581:8657:8678:8854:8911:8917:8924:8968:9073:9099:9106:9117:9136:9220:9226:9254:9275:9277:9329:9365:9424:9440:9443:9446:9:124:204:229:258:292:405:414:423:455:574:625:678:697:813:973:1044:1052:1175:1189:1326:1388:1452:1470:1497:1520:1549:1591:1638:1681:1701:1702:1716:1728:1879:1881:1884:1959:1988:2053:2078:2102:2107:2110:2139:2193:2196:2248:2284:2341:2370:2404:2409:2425:2455:2482:2589:2591:2664:2680:2815:2892:3041:3094:3102:3245:3294:3411:3441:3558:3560:3611:3618:3651:3652:3666:3737:3747:3749:3808:3810:3825:3872:3875:3880:3945:3947:4089:4110:4155:4208:4399:4485:4525:4548:4562:4566:4613:4690:4712:4777:4822:4911:4914:4919:4967:5086:5088:5140:5211:5225:5270:5309:5407:5454:5488:5491:5557:5609:5611:5777:5809:5845:5895:5897:5925:5935:6043:6098:6103:6111:6145:6157:6165:6194:6233:6282:6311:6325:6421:6425:6457:6458:6572:6603:6617:6683:6821:6829:6866:6910:6939:6959:7044:7051:7195:7230:7326:7391:7474:7482:7527:7597:7630:7738:7753:7995:8011:8013:8028:8029:8042:8063:8064:8139:8256:8378:8397:8443:8535:8618:8675:8691:8725:8792:8795:8811:8817:8835:8975:9091:9182:9219:9227:9236:9316:9346:9371:9411:9437:9462:1:6:15:77:79:114:133:142:236:318:336:356:366:370:469:504:518:535:546:555:665:915:980:1081:1140:1211:1249:1327:1339:1428:1474:1489:1498:1536:1540:1584:1627:1645:1663:1664:1675:1762:1963:2004:2040:2041:2081:2115:2131:2225:2228:2255:2298:2321:2372:2444:2476:2491:2528:2569:2597:2615:2641:2685:2755:2762:2811:2831:2835:2843:2864:2866:2889:2931:2935:2950:2954:2990:2997:3118:3130:3167:3172:3180:3260:3301:3331:3364:3399:3419:3566:3631:3636:3654:3664:3774:3804:3818:3851:3877:3907:3919:3922:3950:3959:3988:4012:4013:4016:4034:4144:4164:4234:4261:4266:4284:4288:4321:4416:4420:4547:4590:4616:4618:4695:4740:4877:4884:4892:4936:4968:5014:5026:5095:5117:5125:5174:5219:5242:5251:5286:5419:5450:5458:5470:5475:5507:5550:5572:5581:5614:5648:5657:5773:5791:5843:5966:5979:6016:6025:6067:6133:6222:6230:6245:6303:6370:6371:6403:6450:6513:6539:6597:6640:6688:6778:6819:6834:6836:6870:6890:6915:7082:7084:7089:7103:7134:7146:7221:7244:7259:7363:7410:7477:7522:7529:7590:7735:7829:7946:7968:7990:8041:8069:8076:8096:8098:8161:8325:8355:8400:8428:8495:8515:8519:8523:8597:8760:8852:8899:8922:8934:8940:8958:8992:9037:9262:9271:9322:9399:9403:9442:48:49:50:106:113:125:140:158:183:186:230:259:267:311:359:371:417:443:505:516:523:590:594:628:716:729:746:752:762:873:884:921:937:949:997:1010:1050:1065:1120:1131:1191:1224:1232:1274:1287:1324:1345:1399:1464:1486:1573:1577:1601:1644:1734:1772:1820:1823:1878:1897:1919:1943:1964:1967:1991:2025:2039:2045:2065:2071:2076:2085:2086:2091:2092:2106:2162:2231:2259:2326:2330:2354:2408:2463:2537:2547:2556:2576:2583:2587:2633:2671:2697:2717:2730:2741:2748:2768:2788:2795:2829:2872:2896:2899:2934:3044:3053:3061:3101:3124:3144:3149:3179:3267:3293:3367:3457:3491:3517:3543:3562:3567:3616:3622:3625:3742:3751:3760:3802:3868:3894:3946:3983:4054:4065:4084:4108:4111:4147:4294:4327:4339:4404:4430:4433:4449:4484:4539:4556:4582:4598:4649:4776:4785:4839:4860:4939:5000:5004:5013:5015:5030:5141:5203:5214:5282:5285:5314:5345:5346:5378:5429:5431:5508:5531:5545:5599:5618:5668:5691:5709:5857:5880:5889:5902:5949:5983:5992:6001:6055:6115:6118:6153:6213:6236:6266:6285:6329:6368:6377:6392:6402:6411:6424:6471:6485:6535:6549:6584:6612:6632:6653:6669:6686:6705:6719:6744:6749:6844:6857:6872:6889:6927:6933:6954:6971:6975:7002:7060:7073:7097:7140:7176:7189:7198:7226:7263:7282:7315:7324:7358:7389:7405:7423:7472:7494:7496:7537:7538:7581:7588:7601:7654:7666:7694:7706:7724:7761:7765:7786:7816:7823:7900:7909:7926:7950:7961:8019:8036:8037:8107:8119:8154:8187:8225:8246:8292:8297:8334:8382:8426:8475:8491:8501:8513:8555:8579:8823:8893:8905:8969:8972:9007:9011:9036:9048:9075:9080:9087:9095:9228:9376:9454:81:102:139:168:215:237:252:275:279:369:386:396:445:480:483:499:558:601:603:617:680:708:719:761:771:777:796:845:847:848:985:988:992:1005:1006:1011:1033:1053:1063:1072:1082:1128:1145:1162:1187:1206:1292:1301:1332:1359:1374:1376:1405:1424:1431:1434:1441:1454:1521:1530:1563:1598:1603:1617:1649:1652:1658:1674:1725:1760:1795:1816:1818:1859:1871:1888:1981:2020:2034:2105:2109:2138:2192:2253:2261:2282:2322:2343:2384:2385:2441:2443:2462:2466:2473:2540:2552:2586:2610:2625:2654:2665:2710:2731:2781:2800:2806:2814:2820:2849:2886:2955:2966:2979:2983:3022:3082:3142:3154:3174:3203:3241:3384:3401:3439:3456:3461:3474:3475:3480:3507:3511:3554:3590:3605:3671:3681:3690:3692:3698:3700:3719:3726:3765:3809:3812:3826:3830:3833:3834:3836:3847:3895:3981:3984:3992:4048:4060:4088:4090:4094:4102:4107:4119:4138:4160:4228:4239:4256:4263:4265:4280:4290:4361:4408:4471:4479:4541:4543:4563:4575:4596:4624:4647:4681:4704:4711:4801:4872:4925:4941:4969:4982:4989:5028:5064:5108:5122:5154:5163:5184:5188:5194:5254:5263:5266:5319:5336:5354:5410:5441:5460:5479:5511:5513:5525:5579:5591:5644:5647:5711:5740:5775:5817:5824:5826:5916:5926:5998:6007:6036:6071:6077:6150:6161:6175:6181:6314:6316:6322:6332:6348:6399:6419:6448:6502:6563:6593:6607:6657:6665:6728:6759:6775:6784:6793:6820:6825:6855:6888:6922:6924:6925:6928:6950:6960:6969:7026:7068:7074:7077:7153:7157:7196:7219:7268:7283:7351:7426:7471:7506:7512:7583:7622:7627:7647:7651:7677:7707:7742:7744:7865:7869:7903:7938:8001:8015:8062:8094:8110:8162:8219:8243:8253:8268:8287:8288:8333:8340:8354:8377:8401:8445:8456:8460:8469:8498:8503:8506:8548:8551:8637:8647:8651:8669:8733:8750:8783:8789:8832:8846:8866:8907:8908:8930:8939:8953:8977:8983:9004:9012:9018:9035:9038:9046:9103:9108:9140:9207:9243:9306:9309:9318:9326:9348:9392:8:52:53:146:155:191:212:217:218:232:242:250:290:387:402:419:429:448:487:488:492:545:566:578:588:596:619:692:701:704:744:755:757:779:839:842:869:914:938:950:958:976:1000:1043:1046:1090:1101:1112:1139:1160:1165:1220:1238:1272:1276:1286:1296:1353:1391:1395:1409:1422:1432:1473:1502:1555:1557:1561:1578:1586:1619:1630:1667:1669:1690:1703:1754:1775:1785:1805:1812:1822:1832:1837:1840:1923:1941:1955:1978:1984:1990:1997:2005:2016:2021:2044:2056:2062:2087:2130:2163:2171:2194:2208:2217:2274:2287:2290:2344:2376:2381:2392:2396:2419:2435:2436:2449:2478:2503:2506:2542:2581:2623:2677:2681:2716:2719:2766:2775:2860:2914:2933:2940:2970:2976:2977:2991:3025:3030:3057:3115:3131:3151:3157:3161:3193:3199:3206:3214:3217:3218:3285:3309:3321:3327:3340:3344:3355:3379:3410:3436:3448:3450:3451:3500:3512:3538:3557:3612:3635:3678:3718:3721:3730:3745:3752:3757:3879:3903:3975:4009:4036:4039:4050:4052:4062:4072:4074:4143:4182:4183:4229:4237:4262:4272:4293:4313:4325:4347:4371:4376:4384:4462:4475:4489:4524:4542:4558:4576:4594:4595:4615:4645:4666:4671:4675:4676:4679:4693:4720:4723:4737:4750:4756:4810:4864:4890:4894:4902:4963:4976:4977:4984:4986:4996:5009:5061:5062:5067:5085:5112:5121:5128:5157:5164:5172:5212:5226:5256:5308:5343:5351:5359:5377:5461:5497:5500:5501:5512:5616:5624:5633:5635:5688:5713:5776:5785:5807:5827:5842:5874:5891:5894:5899:5955:6026:6128:6148:6155:6173:6210:6239:6242:6255:6262:6273:6343:6344:6410:6412:6415:6433:6478:6491:6503:6508:6522:6528:6559:6561:6582:6613:6658:6666:6667:6722:6747:6748:6791:6864:6893:6895:6926:6951:6953:6968:6993:7012:7036:7046:7070:7081:7129:7131:7191:7218:7232:7235:7247:7292:7298:7313:7332:7337:7356:7372:7384:7419:7455:7459:7495:7516:7518:7541:7554:7555:7578:7589:7595:7628:7629:7640:7668:7679:7686:7709:7743:7746:7760:7797:7811:7815:7842:7876:7964:8009:8045:8054:8055:8071:8100:8129:8131:8146:8205:8239:8258:8260:8275:8276:8280:8283:8285:8357:8385:8416:8434:8457:8468:8478:8485:8502:8526:8541:8546:8552:8598:8610:8652:8654:8668:8674:8688:8693:8738:8754:8765:8785:8809:8820:8850:8859:8882:8897:8925:8949:9010:9028:9032:9039:9040:9043:9065:9134:9139:9144:9161:9167:9217:9224:9225:9251:9257:9272:9303:9328:9341:9350:9358:9364:9408:9417:9449:9450:9453 [-1:10] [-1:6] -1:1:2 -1:6:4:0:5:3 -1:13:3:29:28:19:16:24:22:30:18:6:11:1:15:14:21:7:9:25:4:8:23:12:2:31:27:20:5:26:17:10 -1:277:118:84:23:303:205:354:25:259:55:103:93:216:246:33:150:163:301:268:238:11:20:321:6:236:356:110:128:230:159:348:126:339:181:291:355:147:289:290:338:119:149:90:316:100:17:320:345:239:212:158:169:48:306:170:343:108:293:255:121:347:254:125:318:127:15:141:3:44:135:207:184:241:30:189:63:28:67:89:51:164:299:143:1:58:70:191:232:172:182:148:226:68:61:292:298:78:177:225:62:2:113:193:54:196:279:305:307:171:195:200:330:124:270:99:66:256:137:190:288:248:257:69:331:312:283:75:83:211:266:313:43:140:168:199:86:16:217:260:10:273:204:136:349:85:102:192:4:317:249:161:165:357:134:109:122:56:47:92:295:19:322:218:104:209:243:247:138:296:27:96:26:73:87:117:130:309:227:319:91:219:324:144:72:65:359:37:123:272:336:42:34:281:325:8:206:187:308:5:98:229:167:333:311:286:365:267:269:157:314:287:13:152:358:326:32:186:265:80:185:31:198:284:353:222:29:107:183:208:340:231:0:111:178:282:214:101:252:251:35:53:77:223:39:116:280:213:115:297:294:304:332:278:240:361:50:346:335:38:52:131:341:82:133:263:300:142:244:328:45:302:132:352:285:315:151:261:337:351:363:342:106:129:310:258:173:250:224:271:344:114:220:24:156 -1:1265:2545:1465:968:2538:2515:2402:2487:871:1147:1405:1869:2408:890:483:2466:1343:584:1332:2426:2623:2485:1422:433:1594:1103:1900:1178:2778:2690:1643:307:2453:1077:2470:656:1089:508:1992:717:1682:703:942:2101:401:554:2013:2133:1409:1495:1019:481:655:1777:815:1025:690:2504:1306:340:1934:761:2749:278:1013:1768:1635:101:2599:1665:2255:1937:2565:856:1785:53:1252:2509:1134:1527:1756:2269:391:1275:625:2024:1402:393:12:2158:823:238:1337:81:1166:2095:2817:671:1331:2459:1797:2303:220:2295:2312:725:363:596:838:2502:2166:2046:2184:1398:1575:1264:1167:1198:1951:1762:2088:2683:2041:1967:2111:349:2758:2681:775:1236:2072:551:2583:996:1257:1871:429:2014:2003:355:1920:1364:1474:358:1440:2062:2196:1932:1916:1826:1828:611:852:2301:548:418:2469:150:189:1558:894:1272:2368:1011:89:919:1571:1812:2159:1064:1277:780:1040:601:1695:2050:795:881:1774:2043:566:2173:2254:1207:178:1152:2119:2619:1024:242:819:1023:1599:2447:1237:1927:2652:456:1913:1404:1324:2253:1267:2104:2345:608:123:541:1621:1107:1038:2532:1769:321:2329:199:288:1698:1813:192:2020:722:1654:2409:1186:1274:827:1962:1031:1320:2445:1893:2458:2657:2471:669:658:2011:2759:2006:1254:1315:2513:25:2082:1704:530:2699:36:2645:2687:849:1271:2650:2815:2366:2460:1423:1908:2472:1561:47:855:2132:2746:445:1526:542:267:2456:2621:513:1102:2376:2660:991:1366:1911:2738:877:1087:243:718:140:1640:2803:411:1757:2374:1051:1374:1942:2505:2256:2535:1114:2330:512:754:1956:2820:1285:74:507:606:2695:0:88:572:1160:1564:2703:938:1593:2032:90:316:155:488:1047:1164:2364:72:214:451:1284:275:1190:2588:1853:2137:2275:312:593:941:2518:2685:1355:2719:181:675:889:1443:52:1540:1806:2522:1056:1444:1876:1477:1518:2711:522:600:765:1651:1660:1936:2626:239:1851:2434:2494:470:490:1098:2776:1037:1696:1730:2349:485:796:1630:2321:2674:9:264:384:804:979:1305:1500:118:440:473:1326:1448:2423:2561:476:1381:1863:2676:86:1403:2105:992:697:1245:1877:2023:2057:1213:48:187:818:1279:2559:2670:390:519:1144:1341:1625:1647:45:830:978:893:957:1020:31:149:180:728:739:1496:2053:2148:976:1339:1450:1739:2211:447:93:171:208:2177:2436:2642:2610:2682:99:854:1229:1365:1708:1759:1765:1781:2377:2444:2725:116:137:821:1121:848:903:1006:1033:1039:2147:2290:20:22:798:956:1139:1176:2230:2362:15:186:207:973:1862:2052:217:436:1043:1531:1595:1689:2567:420:2086:2186:69:336:498:622:195:449:594:868:1734:1808:966:2825:1128:2000:2755:40:46:176:672:929:1211:1515:1744:1874:2085:446:892:1067:1248:1604:1706:1761:2066:2547:407:1073:1263:1369:1743:1816:73:270:640:789:1522:1760:2449:2618:2801:2810:135:1866:2118:2252:2327:2586:2587:271:805:1502:1655:1802:2578:184:1113:1290:1316:1732:2084:2335:2558:292:306:1321:1585:1752:1975:2160:2550:2726:2:375:443:503:540:650:1411:1699:1715:2250:2501:2750:590:748:1191:1192:1923:2009:290:501:510:1151:1235:1463:1804:1965:2536:78:364:517:720:816:1032:1606:1784:1912:2113:2280:2576:13:68:1289:1436:1596:1989:2134:2792:37:124:233:346:1181:1246:1586:1590:2210:2511:2806:34:131:412:458:642:724:874:1311:1543:1710:1753:1807:2393:174:179:317:745:1045:2153:2239:2763:300:768:801:985:2090:2406:2689:98:249:1076:1438:1659:1686:1846:2001:2068:2299:2539:2557:4:156:585:588:1027:1036:1303:1771:1875:1996:277:580:862:961:1085:1507:1509:1840:2176:2273:2389:2462:2701:2714:395:792:1309:1425:1491:1764:235:322:698:774:802:812:1059:1093:1137:1349:1494:1884:1903:2144:2193:2323:85:182:326:867:960:1124:1179:1244:1310:1567:1815:1825:2012:2190:2468:122:173:441:472:487:736:742:1342:1513:1582:1679:1909:1935:1983:2411:2612:2721:403:467:605:645:773:786:840:1197:1726:1892:1901:1997:2300:2744:2767:2812:236:477:647:943:1262:1492:1898:2167:2206:2334:2392:2533:14:57:861:904:911:1080:1280:1970:1999:2225:2457:2647:59:61:84:92:323:578:615:696:716:1026:1180:1208:1222:1313:1417:1435:1663:1805:1950:2044:2131:2154:2350:2433:2450:2765:3:191:334:397:689:1030:1119:1572:1627:1668:1974:1980:2126:2213:2479:2816:158:532:667:1632:2498:2542:2679:58:169:262:620:806:949:1490:1493:1532:1576:1865:1944:2116:2221:2266:2292:2529:2742:2829:229:304:648:902:1106:1174:1393:1615:1626:1783:1890:2208:35:203:523:763:826:924:1055:1145:1388:1536:1551:1789:2102:2278:21:141:218:339:538:562:613:643:731:1018:1054:1072:1205:1338:1733:1786:1833:1977:2141:2217:2373:2580:2771:94:373:682:1083:1115:1132:1188:1233:1299:1501:2075:2081:2235:2322:2359:2653:18:399:406:492:617:670:778:922:1269:1639:1731:2341:2435:42:76:294:302:331:389:398:461:769:860:933:980:1021:1177:1357:1462:1566:1592:1645:1735:1799:2152:2344:2431:2514:2604:2664:136:144:164:234:417:859:1094:1123:1221:1476:2340:2415:2527:2566:2609:2727:2824:71:659:676:712:787:974:1057:1066:1165:1380:1394:1713:1745:1811:1887:2422:2467:2752:67:210:357:575:583:607:630:779:784:879:918:1354:1360:1472:1554:1776:2021:2055:2150:2372:2378:2569:2635:2655:2818:148:196:341:536:561:581:610:626:681:825:1052:1189:1227:1253:1588:1707:1827:1873:2059:2061:2215:2226:2381:2506:2709:111:251:424:516:527:1230:1294:1329:1418:1421:1460:1557:1782:2019:2143:2455:2476:2575:2614:2666:64:301:362:569:597:908:915:1559:1607:1609:1611:1661:1700:1719:1964:1981:2149:2181:2320:2348:2351:2784:2797:138:497:733:785:832:901:905:988:1158:1428:1499:1687:1690:1832:1902:1960:1990:2170:2231:2342:2429:2454:2461:2579:2611:2734:2795:125:415:435:549:711:723:740:753:875:900:975:1078:1410:1634:1674:1857:1998:2048:2743:2796:1:63:112:310:330:350:432:494:495:799:1016:1095:1131:1250:1371:1429:1839:1852:2117:2179:2224:2355:2706:2789:161:209:297:308:352:423:558:627:683:688:714:735:912:1035:1068:1116:1258:1382:1470:1623:1772:1838:1924:2017:2025:2031:2034:2099:2103:2360:2553:2631:2793:2798:10:408:609:1070:1218:1234:1413:1525:1550:1646:1658:1716:1845:2018:2049:2339:2357:2401:2438:2663:2678:2802:96:222:223:353:376:486:509:591:632:700:866:914:916:965:1143:1172:1202:1325:1377:1534:1544:1705:1721:1850:1889:2098:2229:2279:2328:2481:2528:2688:2769:41:197:559:782:926:1142:1318:1504:1670:1763:1822:2026:2058:2284:2298:2403:2503:2608:2633:2731:2814:460:462:466:480:677:752:808:833:998:1241:1286:1319:1396:1431:1461:1577:1610:1972:2022:2091:2194:2214:2237:2425:2441:2540:2598:2617:2745:23:56:370:636:653:870:1000:1108:1195:1255:1503:1556:1631:1684:1717:1810:1976:1985:2040:2122:2156:2165:2178:39:91:263:342:666:708:824:947:1065:1288:1362:1510:1780:1856:1938:1982:2036:2138:2180:2319:2363:2428:2442:2491:2672:2751:2821:132:190:206:226:259:280:287:379:380:457:603:732:945:1136:1617:1736:2071:2109:2128:2130:2198:2311:2356:2473:2493:2517:2531:2572:2589:2597:2693:2712:27:145:228:252:442:533:612:619:707:803:839:842:883:986:1096:1193:1215:1217:1287:1412:1426:1570:2010:2076:2123:2257:2591:2694:2724:2804:83:121:168:170:257:309:318:319:550:691:713:726:850:882:1100:1125:1295:1353:1367:1399:1485:1541:1613:1618:1702:1881:1897:1955:1971:2136:2191:2204:2247:2262:2333:2385:2492:2525:2548:2630:2644:2673:2781:16:29:107:108:157:200:231:254:266:469:568:638:685:701:715:737:744:813:841:872:939:948:959:982:1060:1199:1260:1278:1750:1968:1973:1978:2079:2223:2407:2669:2697:2700:2780:205:248:333:475:564:616:621:651:661:674:684:705:810:962:971:1146:1154:1200:1240:1266:1340:1356:1455:1459:1548:1641:1842:2151:2197:2203:2286:2293:2308:2358:2370:2432:2593:2606:2691:2704:19:62:97:139:160:204:256:535:660:702:828:1138:1185:1268:1350:1406:1508:1535:1697:1831:2029:2070:2155:2227:2289:2310:2346:2371:2463:2544:2628:2741:2762:2775:33:65:245:291:356:491:553:592:629:1049:1074:1149:1201:1224:1328:1385:1430:1434:1458:1742:1837:1915:1921:1949:2015:2096:2129:2216:2267:2388:2480:2490:2496:2600:2625:2661:2787:2788:2823:26:44:172:193:241:250:299:332:511:631:657:756:844:993:1009:1212:1226:1335:1387:1415:1579:1602:1614:1718:1729:1749:1766:1778:1788:1926:1959:1991:1993:2073:2164:2281:2307:2416:2607:2639:2668:2713:2766:2799:142:198:227:237:274:282:396:431:499:577:624:741:762:1058:1171:1390:1437:1464:1633:2030:2054:2110:2171:2192:2220:2249:2260:2264:2265:2419:2420:2519:2520:2568:2574:2757:2777:50:133:244:268:279:289:371:381:388:421:496:602:641:699:755:794:906:921:944:1003:1029:1148:1298:1322:1346:1395:1446:1517:1598:1657:1758:1880:1886:1891:1948:2069:2115:2241:2248:2283:2316:2379:2391:2571:2573:2627:2640:2722:2733:2761:2770:2773:2790:2800:2813:55:82:110:128:247:296:328:479:668:746:757:791:811:820:869:897:934:981:1042:1105:1153:1206:1228:1498:1523:1529:1587:1636:1692:1728:1773:1843:1917:1922:1931:2212:2294:2314:2369:2382:2387:2437:2446:2464:2613:2629:2667:2698:2779:2794:127:215:219:232:261:329:335:338:347:351:413:515:524:555:567:664:706:738:747:758:847:858:917:963:1007:1048:1079:1216:1296:1345:1384:1473:1479:1488:1516:1565:1601:1622:1628:1664:1724:1727:1747:1888:2005:2008:2035:2064:2140:2185:2282:2354:2497:2507:2671:2740:2747:2748:2774:2822:79:162:165:272:354:366:377:426:459:579:589:654:693:709:777:797:807:817:834:853:888:946:951:1017:1120:1150:1370:1383:1480:1484:1521:1569:1688:1823:1830:1904:1946:1966:1994:2047:2056:2089:2139:2157:2195:2199:2218:2232:2234:2338:2439:2448:2477:2489:2530:2537:2543:2546:2616:2624:2634:2659:2675:2716:2720:2760:2819:106:213:230:269:360:369:382:385:387:471:543:586:694:729:759:776:809:829:857:895:931:977:997:1004:1010:1184:1210:1223:1239:1291:1358:1373:1391:1397:1400:1424:1457:1469:1637:1650:1685:1796:1847:1848:1963:2188:2243:2244:2245:2343:2397:2414:2615:2622:2648:2680:2768:2782:2783:77:87:104:105:159:185:211:246:281:285:311:404:425:539:576:665:764:843:878:925:935:972:987:1001:1002:1044:1117:1327:1433:1439:1445:1456:1519:1546:1584:1649:1787:1790:1835:1885:1954:2074:2189:2285:2296:2297:2353:2361:2375:2440:2592:2658:2684:2707:2717:2786:2808:2828:80:102:120:153:265:273:305:325:343:416:428:452:454:464:504:521:595:663:899:907:913:927:940:983:984:994:1008:1071:1126:1157:1173:1175:1232:1297:1300:1330:1344:1386:1389:1442:1467:1487:1489:1589:1638:1673:1755:1791:1795:1860:1868:1945:1957:1961:2002:2007:2027:2038:2065:2078:2093:2107:2168:2236:2251:2271:2274:2288:2305:2347:2404:2405:2483:2549:2638:2710:2772:2807:8:11:28:146:175:258:315:368:386:419:514:534:544:545:547:639:749:822:835:876:891:937:995:1014:1075:1104:1194:1247:1270:1276:1308:1323:1361:1363:1407:1447:1451 -1:15:14:13:2:16:8:3:7:6:4:11:5:9:23:10:22:0:21:1:20:12:19:17 -1:27:25:0:26:22:29:28:30:1:11:2:3:4:5:6:17:15:18:16:14:13:12:10:9:8:7:19:20:21:24:23 -1:0:1:2 -1:6:1:2:0:3:5:4 [1:8152] [1:5] [1:713] [1:662] [1:65] [1:122036] [1:5]
tree_sizes=6323 3645

Tree=0
num_leaves=31
num_cat=6
split_feature=15 17 16 3 3 16 16 16 17 15 21 16 21 21 3 21 16 21 17 21 15 21 16 15 21 1 21 3 21 12
split_gain=2.41054e+06 611218 572288 347169 221899 219253 196434 170859 154687 133778 76039.1 55255.8 36604.7 31076.2 21495.9 17182.9 14201.2 13733.8 9387.27 6552.95 3567.94 3109.79 2874.68 1751.11 2330.49 1578.86 1354.62 919.676 660.384 611.278
threshold=2.5000000000000004 5.5000000000000009 1.9679135209334251 0 1 2.4104278074866312 1.0899078490016978 1.4987309644670053 16.500000000000004 4.5000000000000009 1.2477676791836085 1.0285850469835218 1.1164409042726682 1.2331461554597032 2 1.0901626543552283 1.034263172833523 1.0299328577431652 33.500000000000007 1.1151735553772071 1.5000000000000002 1.0108602537680336 2.8141447368421058 1.5000000000000002 1.711668650420765 3 1.0624358177501452 4 2.0598653854768627 5
decision_type=2 2 2 9 9 2 2 2 2 2 2 2 2 2 9 2 2 2 2 2 2 2 2 2 2 9 2 9 2 1
left_child=2 3 7 -2 -3 23 16 -1 10 17 15 -12 -11 19 -9 -6 -5 -8 -15 -10 -7 -16 25 -4 -25 -22 -18 -24 -26 -23
right_child=1 4 5 6 8 20 9 14 13 12 11 -13 -14 18 21 -17 26 -19 -20 -21 22 29 27 24 28 -27 -28 -29 -30 -31
leaf_value=-2.8235769656111529 -2.8234087724659824 -2.8234604057949646 -1.9221692213337254 -2.8228004220538438 -2.8058080379089967 -2.8235115261037178 -2.8049911125873037 -2.8215754319504609 -2.8157352142660339 -2.7560099064354207 -2.8144598286799343 -2.700630823458614 -2.6461793830645464 -2.7605695091504958 -2.8204322899669503 -2.7603173779800465 -2.8032130301079823 -2.5164886179281467 -2.7906050705663565 -2.7986832774707153 -2.4689918932997359 -2.2182967662098223 -2.7802907113428708 -1.9564263375061492 -2.096218312410369 -2.7080094378454795 -2.7243750626669807 -2.496547853316216 -2.3405120535169259 -2.3563171254267434
leaf_weight=3328.2996649742126 39639.403362751007 413179.85959267616 8642.4078811407089 14635.222095251083 27884.188853740692 150.37364828586578 420.05888545513153 260.08927953243256 110245.51669919491 8376.3835295438766 11963.441242933273 97946.827086567879 80444.632376432419 57752.133944034576 34.944816827774048 81228.672036528587 604.32345926761627 22785.296334862709 47336.082471013069 115238.07713258266 78.542635917663574 273.29065477848053 38.217426657676697 1629.426887512207 169.8983713388443 406.80204224586487 5525.3302201032639 748.48469567298889 34.057329416275024 5099.7245383262634
leaf_count=60004 714636 7448982 155809 263850 502708 2711 7573 4689 1987553 151013 215682 1765827 1450290 1041180 630 1464425 10895 410783 853395 2077561 1416 4927 689 29376 3063 7334 99613 13494 614 91940
internal_value=-2.77045 -2.78025 -2.23829 -2.69356 -2.79578 -2.01075 -2.6548 -2.53922 -2.77496 -2.62861 -2.74237 -2.71302 -2.65654 -2.79655 -2.37225 -2.77194 -2.79604 -2.52171 -2.7741 -2.80702 -2.59325 -2.35132 -2.56602 -1.93166 -1.97645 -2.66177 -2.73215 -2.50698 -2.13676 -2.34749
internal_weight=1.1561e+06 1.13521e+06 20894.6 172431 962775 11898.2 132791 8996.35 549595 112026 219023 109910 88821 330572 5668.05 109113 20764.9 23205.4 105088 225484 1422.42 5407.96 1272.05 10475.8 1833.38 485.345 6129.65 786.702 203.956 5373.02
internal_count=20842662 20465966 376696 3108653 17357313 214506 2394017 162190 9908331 2019659 3948642 1981509 1601303 5959689 102186 1967133 374358 418356 1894575 4065114 25644 97497 22933 188862 33053 8750 110508 14183 3677 96867
cat_boundaries=0 286 571 662 961 1240 1241
cat_threshold=0 0 32768 0 0 0 8 0 0 0 0 0 0 0 0 0 0 0 0 0 0 0 0 0 0 0 1024 0 0 0 0 0 0 0 0 0 8388608 0 0 0 0 1024 256 0 0 0 0 0 0 0 0 16 0 0 0 0 0 0 0 0 0 0 0 0 0 0 0 0 0 0 2048 0 0 0 0 0 0 0 0 0 0 0 0 0 0 0 0 0 0 2097152 2 0 0 0 0 8192 0 0 0 0 0 0 0 0 16384 0 0 16777216 0 0 0 0 0 0 0 0 0 0 0 0 0 0 0 0 0 0 8 0 0 4 0 0 0 0 0 33554432 67108864 0 0 0 0 0 0 0 0 0 0 0 0 0 0 0 256 0 4096 0 0 0 0 0 262144 0 0 0 0 0 0 0 0 0 0 0 2 0 0 0 0 0 0 0 0 0 0 0 0 0 0 0 0 0 0 0 0 0 0 4 0 33554432 0 0 0 0 0 0 0 0 0 16777216 0 0 0 0 0 0 8388608 0 67108864 0 0 0 0 0 0 0 0 0 0 0 0 0 0 0 0 0 0 0 0 262144 0 0 0 0 0 0 0 0 0 0 0 0 0 64 0 0 0 0 0 0 0 0 0 0 0 0 0 0 0 0 0 0 0 0 0 0 0 0 0 0 0 131072 0 1 16777216 0 0 65536 0 0 0 0 0 0 8 0 0 0 0 0 0 0 0 0 0 0 0 67108864 0 0 0 32768 0 0 0 0 0 0 0 0 0 0 0 0 0 0 0 0 0 0 256 0 0 0 0 0 0 0 0 16 0 0 0 0 0 0 0 0 0 0 0 0 0 0 1048576 0 0 0 0 0 0 0 0 0 0 0 0 0 0 0 0 131072 2048 0 0 0 0 2097152 2 0 0 0 0 0 0 0 0 0 0 0 0 0 16384 0 0 0 0 0 0 0 0 0 0 0 0 0 0 16384 0 0 524288 0 0 0 0 0 0 4 0 0 0 0 0 33554432 67108864 0 0 0 0 0 0 0 0 0 0 0 0 0 0 0 0 0 2147487744 0 0 0 2147483648 0 0 0 0 0 0 0 32 0 0 0 0 0 0 0 0 0 0 0 0 0 0 0 0 0 0 128 0 0 0 0 0 0 0 0 0 0 0 0 0 0 2147483648 0 0 0 0 0 0 16777216 0 0 0 0 0 0 8388608 0 67108864 0 0 0 0 0 8192 0 0 0 0 0 134217728 0 0 0 0 0 0 0 0 0 0 0 0 0 0 0 0 0 0 0 0 0 0 0 0 0 0 0 0 0 0 0 0 0 4 0 0 0 0 32 65536 0 0 0 0 0 0 0 0 0 0 131072 0 0 0 0 2 0 0 0 0 0 0 0 0 0 0 0 0 0 0 0 0 0 0 0 0 0 0 0 0 0 0 0 0 0 0 0 0 0 0 0 0 0 0 0 0 0 0 0 0 0 0 0 0 0 0 0 0 0 0 0 0 0 0 0 0 0 0 0 0 0 0 0 0 0 0 0 0 0 0 0 0 0 0 0 0 0 0 0 0 0 0 0 0 0 0 2 1073741825 0 0 0 0 0 0 0 0 0 0 0 0 0 0 0 0 0 0 0 0 0 0 0 0 0 0 0 0 0 0 0 0 0 0 0 0 0 0 0 0 0 0 0 0 0 0 0 2048 0 0 0 0 0 0 0 0 0 0 0 0 0 0 0 0 0 0 262144 0 0 0 0 65536 0 0 0 0 0 0 0 0 0 0 0 0 0 0 0 0 0 0 0 1024 0 0 0 0 0 0 0 0 0 0 8 0 0 0 0 0 64 0 0 0 0 0 0 0 0 0 0 0 0 0 0 0 0 0 0 0 536870912 0 0 0 0 0 2147483648 0 0 0 0 0 0 0 0 0 0 0 0 0 0 0 0 0 0 0 0 0 0 0 1024 0 0 4194304 0 0 0 0 0 0 0 0 0 0 0 0 0 0 0 0 0 0 0 0 0 0 0 0 0 0 4 0 0 0 0 0 0 0 0 0 0 0 4 0 0 0 0 0 0 0 16777216 0 524288 0 0 0 0 0 0 0 0 0 0 1 0 0 0 0 0 0 0 0 0 0 0 0 0 0 0 65536 0 16384 0 0 0 65536 0 0 0 65536 0 0 0 0 0 0 0 0 0 0 0 4096 0 0 0 0 0 0 0 0 0 0 0 0 0 0 0 0 0 0 0 0 0 2147487744 0 0 0 512 0 0 0 0 0 0 0 0 0 0 4194304 131328 0 0 0 0 0 0 0 0 0 0 0 0 0 0 0 0 0 0 0 0 0 0 0 0 0 0 0 0 0 0 0 0 0 2048 0 0 0 0 0 0 0 0 0 0 0 0 0 0 536870912 0 0 0 0 0 0 0 0 0 0 256 0 0 0 0 0 0 0 0 0 0 0 0 0 0 0 0 0 0 0 0 0 524288 0 0 0 0 0 0 0 0 2 0 0 0 524288 0 16 0 0 0 0 0 0 0 0 0 0 0 0 0 0 0 0 0 0 0 0 0 0 0 0 0 8 0 0 0 0 0 0 0 0 0 0 0 0 0 0 0 0 0 0 0 0 0 0 0 0 0 0 8 0 0 0 0 0 0 0 0 1048576 0 0 0 0 0 0 0 0 0 0 0 0 0 0 0 8192 0 0 0 0 0 0 0 0 0 0 0 0 0 0 0 0 0 0 0 0 1049600 0 0 0 0 0 0 0 0 0 0 0 0 0 16 0 0 0 0 0 0 0 0 4194304 0 0 0 0 0 0 0 0 0 0 0 0 0 0 0 0 0 0 0 0 0 0 0 0 0 0 0 1048576 0 0 131072 0 0 0 0 0 0 0 0 0 0 0 0 0 0 0 0 0 0 0 0 0 0 0 0 0 0 0 0 65536 1572864
is_linear=0
shrinkage=1


Tree=1
num_leaves=31
num_cat=1
split_feature=17 21 16 17 16 4 17 16 16 4 4 17 16 4 17 16 16 21 17 4 16 4 16 21 4 17 16 2 4 16
split_gain=1.35217e+06 397651 252176 190550 94664.4 88176.9 83172.5 63776 78523.8 61379.7 57931.2 53203.4 46024.4 42815.1 35203.9 27157.3 21082.3 20629 16321.9 14365.3 13765.1 13360 13143.5 10220.4 9148.15 8066.8 5941.12 5579.99 4843.72 4417.28
threshold=2.5000000000000004 1.2134363134571235 1.3328828828828831 8.5000000000000018 1.0487950058072013 1.0000000180025095e-35 1.5000000000000002 2.0034246575342469 1.9679135209334251 1.0000000180025095e-35 1.0000000180025095e-35 10.500000000000002 1.0999001996007987 1.0000000180025095e-35 21.500000000000004 1.0184129803035196 1.032287021486072 1.0542544244551706 4.5000000000000009 -1.0000000180025095e-35 2.0034246575342469 1.0000000180025095e-35 1.9679135209334251 1.0977767480177121 -1.0000000180025095e-35 27.500000000000004 1.5313592657342661 0 -1.0000000180025095e-35 1.1969503216306288
decision_type=2 2 2 2 2 2 2 2 2 2 2 2 2 2 2 2 2 2 2 2 2 2 2 2 2 2 2 9 2 2
left_child=2 9 12 4 -3 19 7 8 26 -2 28 16 -1 24 15 -12 -11 -18 -7 -6 22 -14 -15 -13 -8 -25 -4 -16 -5 -23
right_child=1 3 6 10 5 18 13 -9 -10 11 14 23 21 20 27 -17 17 -19 -20 -21 -22 29 -24 25 -26 -27 -28 -29 -30 -31
leaf_value=-0.044878967577531362 -0.052485897575709629 -0.043393201773885705 0.22905995625729814 -0.0012327136780129295 0.072393036334618979 0.12738966008194194 0.15659020064353346 0.13959829640995297 0.37132858669556246 -0.04943408360488049 -0.049172395142406483 -0.045150189325858105 -0.020434745779719328 0.18565458655974465 0.012853565923592587 0.038293698680379823 -0.036834611026423859 0.040399287401750118 0.087335463308409425 -0.052969190565844038 0.11465519648248312 0.078553555387247342 0.28616632682326698 -0.011057674157876153 -0.052981325463655832 -0.03501757958386998 0.13650992047042479 -0.018216742152086417 -0.052969784814485568 0.13916873971491001
leaf_weight=8402.5480956397951 367025.3780377619 15535.788310468197 10775.614118430763 5007.4336596317589 2847.7721904367208 42936.816902816296 663.5842603109777 6431.5842073112726 20851.268935393542 10590.950089670718 9747.2860606350005 106339.07529085502 1984.6787059791386 11879.327536694705 18130.314971841872 99105.296409837902 10453.672099374235 49987.307085741311 62401.06196206063 11565.174858581275 4526.5625146254897 4554.446954280138 4479.8805564083159 61748.940927609801 2417.3216114602983 81491.890142995864 2067.5924133956432 71099.595809269696 46871.453787587583 8843.7443218231201
leaf_count=157146 6930137 289007 146003 88781 46977 687240 9888 97437 200412 194719 179381 1993038 36223 179238 328556 1717263 192021 869335 1050081 218512 70605 74550 55804 1125070 45551 1510336 32694 1295185 885608 135864
internal_value=-0.000295101 -0.0157397 0.188265 0.0249283 0.0727268 0.0877916 0.239863 0.283883 0.311423 -0.038524 -0.000941593 -0.0225409 0.0492273 0.166161 0.011377 0.0304614 0.0156384 0.027041 0.103662 -0.0281989 0.191828 0.100631 0.213181 -0.0334069 -0.00783729 -0.0246889 0.214162 -0.0119042 -0.0479761 0.118565
internal_weight=1.16076e+06 1.07289e+06 87878.2 385248 135287 119751 64092.7 40126.1 33694.5 687637 249961 320612 23785.4 23966.7 198082 108853 71031.9 60441 105338 14412.9 20885.8 15382.9 16359.2 249580 3080.91 143241 12843.2 89229.9 51878.9 13398.2
internal_count=20842662 19601247 1241415 6786591 2291817 2002810 837632 476546 379109 12814656 4494774 5884519 403783 361086 3520385 1896644 1256075 1061356 1737321 265489 305647 246637 235042 4628444 55439 2635406 178697 1623741 974389 210414
cat_boundaries=0 3
cat_threshold=3758313608 3994192654 704
is_linear=0
shrinkage=0.05


end of trees

feature_importances:
user_action_mean=18
item_action_mean=13
user_shop_nunique=10
shop_score=8
vender_id=4
user_item_count=4
shop_id=1
item_third_cate_cd=1
day=1

parameters:
[boosting: gbdt]
[objective: binary]
[metric: auc,binary_logloss]
[tree_learner: serial]
[device_type: cpu]
[data_sample_strategy: bagging]
[data: ]
[valid: ]
[num_iterations: 1000]
[learning_rate: 0.05]
[num_leaves: 31]
[num_threads: 96]
[seed: 0]
[deterministic: 0]
[force_col_wise: 0]
[force_row_wise: 0]
[histogram_pool_size: 2048]
[max_depth: 6]
[min_data_in_leaf: 20]
[min_sum_hessian_in_leaf: 0.001]
[bagging_fraction: 0.8]
[pos_bagging_fraction: 1]
[neg_bagging_fraction: 1]
[bagging_freq: 5]
[bagging_seed: 42]
[bagging_by_query: 0]
[feature_fraction: 0.9]
[feature_fraction_bynode: 1]
[feature_fraction_seed: 42]
[extra_trees: 0]
[extra_seed: 6]
[early_stopping_round: 0]
[early_stopping_min_delta: 0]
[first_metric_only: 0]
[max_delta_step: 0]
[lambda_l1: 0.1]
[lambda_l2: 0.1]
[linear_lambda: 0]
[min_gain_to_split: 0.1]
[drop_rate: 0.1]
[max_drop: 50]
[skip_drop: 0.5]
[xgboost_dart_mode: 0]
[uniform_drop: 0]
[drop_seed: 4]
[top_rate: 0.2]
[other_rate: 0.1]
[min_data_per_group: 100]
[max_cat_threshold: 32]
[cat_l2: 10]
[cat_smooth: 10]
[max_cat_to_onehot: 4]
[top_k: 20]
[monotone_constraints: ]
[monotone_constraints_method: basic]
[monotone_penalty: 0]
[feature_contri: ]
[forcedsplits_filename: ]
[refit_decay_rate: 0.9]
[cegb_tradeoff: 1]
[cegb_penalty_split: 0]
[cegb_penalty_feature_lazy: ]
[cegb_penalty_feature_coupled: ]
[path_smooth: 0]
[interaction_constraints: ]
[verbosity: -1]
[saved_feature_importance_type: 0]
[use_quantized_grad: 0]
[num_grad_quant_bins: 4]
[quant_train_renew_leaf: 0]
[stochastic_rounding: 1]
[linear_tree: 0]
[max_bin: 255]
[max_bin_by_feature: ]
[min_data_in_bin: 3]
[bin_construct_sample_cnt: 200000]
[data_random_seed: 42]
[is_enable_sparse: 1]
[enable_bundle: 1]
[use_missing: 1]
[zero_as_missing: 0]
[feature_pre_filter: 1]
[pre_partition: 0]
[two_round: 0]
[header: 0]
[label_column: ]
[weight_column: ]
[group_column: ]
[ignore_column: ]
[categorical_feature: 0,1,2,3,6,7,8,9,10,11,12,13,14]
[forcedbins_filename: ]
[precise_float_parser: 0]
[parser_config_file: ]
[objective_seed: 5]
[num_class: 1]
[is_unbalance: 0]
[scale_pos_weight: 1]
[sigmoid: 1]
[boost_from_average: 1]
[reg_sqrt: 0]
[alpha: 0.9]
[fair_c: 1]
[poisson_max_delta_step: 0.7]
[tweedie_variance_power: 1.5]
[lambdarank_truncation_level: 30]
[lambdarank_norm: 1]
[label_gain: ]
[lambdarank_position_bias_regularization: 0]
[eval_at: ]
[multi_error_top_k: 1]
[auc_mu_weights: ]
[num_machines: 1]
[local_listen_port: 12400]
[time_out: 120]
[machine_list_filename: ]
[machines: ]
[gpu_platform_id: -1]
[gpu_device_id: -1]
[gpu_use_dp: 0]
[num_gpu: 1]

end of parameters

pandas_categorical:[]
